easy 0.22758816182613373 -0.24266688525676727 0.06819433718919754 0.03487081080675125 0.06766003370285034 -0.277913898229599 0.2629694938659668 -0.1737969070672989 -0.15054889023303986 0.28599023818969727 -0.2448989301919937 -0.3443656861782074 0.29726845026016235 0.44127076864242554 0.04034533351659775 0.021062321960926056 -0.24088741838932037 0.0863616093993187 -0.15091067552566528 0.05120940878987312 0.05531721189618111 -0.2517634630203247 -0.03873695060610771 -0.006006825715303421 0.0719628632068634 0.06640471518039703 0.04260490834712982 0.13395367562770844 0.13314057886600494 0.026283981278538704 0.06593406200408936 -0.1297701597213745 0.00426887022331357 0.4766196310520172 -0.3745983839035034 0.1407817155122757 -0.07298505306243896 0.02156810648739338 0.12237273901700974 -0.1196657195687294 0.10868537425994873 0.01387453731149435 -0.19737353920936584 0.19863305985927582 -0.24021871387958527 -0.370999813079834 0.13694970309734344 -0.3997422456741333 0.3610253930091858 -0.2554013431072235
convenient 0.07088900357484818 -0.31312236189842224 0.09953350573778152 0.13526883721351624 0.1544976830482483 -0.193827822804451 0.08039699494838715 0.026743032038211823 0.17112666368484497 0.12657146155834198 -0.06646978855133057 0.010236813686788082 0.24755556881427765 0.1904466301202774 0.20913876593112946 -0.18420809507369995 -0.2599855959415436 -0.12440469115972519 -0.06493787467479706 0.14475573599338531 -0.2038351595401764 -0.12196242064237595 -0.20639698207378387 0.12725289165973663 -0.053391434252262115 0.1766524314880371 0.18049268424510956 0.0330263152718544 -0.10776583850383759 0.19154039025306702 -0.1627408117055893 -0.18156975507736206 0.0387282632291317 0.3032578229904175 -0.21884793043136597 -0.05770651251077652 -0.1568290740251541 0.16968710720539093 -0.1357249617576599 0.23250091075897217 -0.010772444307804108 -0.04674148187041283 -0.2933916747570038 0.10927377641201019 0.20359587669372559 -0.4592835307121277 0.2143571972846985 -0.12353271245956421 0.12525399029254913 -0.1854805052280426
keg 0.23737958073616028 -0.39043188095092773 0.14810676872730255 0.23103077709674835 0.2601841390132904 -0.02573511190712452 0.3248119652271271 -0.15570616722106934 0.3595435619354248 0.409635066986084 -0.49141693115234375 -0.030006960034370422 0.07911180704832077 0.09524062275886536 0.3961995840072632 -0.4701334238052368 -0.15439000725746155 0.07614903151988983 0.15879419445991516 -0.03073693998157978 -0.4161629378795624 -0.012635311111807823 -0.2513016164302826 0.37499362230300903 -0.20271660387516022 0.6256282925605774 0.3713109791278839 0.45088398456573486 -0.21343089640140533 0.5733135342597961 -0.3117075264453888 -0.4278019666671753 0.33066609501838684 0.4354919195175171 -0.2860047221183777 -0.005717066116631031 -0.17406679689884186 -0.29518067836761475 -0.547425389289856 0.6694290041923523 -0.1677139699459076 -0.29908502101898193 -0.140018031001091 0.685322105884552 -0.08601384609937668 -0.7965071797370911 0.4812183678150177 -0.10782582312822342 0.11180420964956284 -0.3477279543876648
loading 0.06756249070167542 -0.2415492832660675 0.032512079924345016 0.12723232805728912 0.15869788825511932 -0.12439665198326111 0.1328834593296051 0.007545590866357088 0.054934337735176086 0.12216107547283173 -0.05017271265387535 -0.04971207305788994 0.1727094203233719 0.1344856321811676 0.12868981063365936 -0.09730658680200577 -0.12432146072387695 -0.03209850564599037 -0.031084926798939705 0.040225736796855927 -0.1701374351978302 -0.06714943796396255 -0.1330420970916748 0.12998725473880768 -0.02422177791595459 0.10042543709278107 0.10347039252519608 0.17595814168453217 0.013850403018295765 0.09566222876310349 -0.11385110020637512 -0.13167455792427063 0.028692925348877907 0.20986290276050568 -0.11593756824731827 -0.0076072742231190205 -0.07076440006494522 0.08548905700445175 -0.1547343134880066 0.12619461119174957 0.013697744347155094 -0.07160235941410065 -0.17351019382476807 0.2141353189945221 0.1005680039525032 -0.35993462800979614 0.16687215864658356 -0.0883389338850975 0.13366268575191498 -0.11182404309511185
unloading 0.04292530566453934 -0.28117790818214417 0.06805391609668732 0.12620607018470764 0.1528327316045761 -0.12648916244506836 0.11374320834875107 0.03748222813010216 0.1059797927737236 0.13291355967521667 -0.03280651569366455 -0.025804562494158745 0.22793206572532654 0.15057095885276794 0.1326206773519516 -0.14706294238567352 -0.14847193658351898 -0.011789033189415932 -0.02252793312072754 0.034696247428655624 -0.19423577189445496 -0.057849638164043427 -0.14632628858089447 0.14045123755931854 -0.0008060779655352235 0.1041373461484909 0.14389003813266754 0.18360356986522675 -0.014577073976397514 0.09350505471229553 -0.1657087802886963 -0.11854086816310883 0.047367170453071594 0.21271584928035736 -0.131275936961174 0.0017321831546723843 -0.09274832159280777 0.08728941529989243 -0.18989577889442444 0.18835584819316864 0.014181914739310741 -0.050508975982666016 -0.23264142870903015 0.25263455510139465 0.132468581199646 -0.37627893686294556 0.14394645392894745 -0.05628376081585884 0.14431408047676086 -0.08970721065998077
verifiable 0.11122751235961914 -0.3818291127681732 0.08801858872175217 0.23552930355072021 0.25195369124412537 -0.21699665486812592 0.14837078750133514 0.07248838245868683 0.12998878955841064 0.2980867624282837 -0.08097971230745316 -0.025031736120581627 0.2693496644496918 0.18080218136310577 0.223356232047081 -0.15240134298801422 -0.2595004737377167 -0.006487767677754164 0.016589198261499405 0.00403868081048131 -0.33213117718696594 -0.06412508338689804 -0.1801622360944748 0.22567500174045563 -0.011332686059176922 0.24111074209213257 0.24353308975696564 0.35484424233436584 -0.08247070759534836 0.18078647553920746 -0.2079378366470337 -0.19709959626197815 0.10526569932699203 0.2893613874912262 -0.2216569185256958 -0.06905882805585861 -0.13059002161026 0.005291188135743141 -0.2616538405418396 0.2718678414821625 -0.01636841520667076 -0.12180627882480621 -0.2929800748825073 0.4359174072742462 0.186564102768898 -0.5843210816383362 0.2505064308643341 -0.07855779677629471 0.29023313522338867 -0.15966349840164185
sealing 0.2968306541442871 -0.3983466923236847 0.027291681617498398 0.20089124143123627 0.30488651990890503 -0.22841864824295044 0.22128507494926453 0.030187169089913368 0.0880625918507576 0.1548863649368286 0.017776502296328545 0.012466108426451683 0.19023342430591583 0.2661619484424591 0.3415440022945404 -0.1145842969417572 -0.14690425992012024 0.007240690756589174 0.04048512876033783 0.06163861230015755 -0.3022646903991699 -0.07633853703737259 -0.2807479500770569 0.19801919162273407 0.0033265461679548025 0.07988105714321136 0.05933874100446701 0.2925567924976349 0.07066144049167633 0.18208789825439453 -0.07856551557779312 -0.2533522844314575 -0.05854535847902298 0.4380434453487396 -0.1838005632162094 0.008881873451173306 -0.1005215272307396 0.12346190959215164 -0.3065791726112366 0.3390439748764038 -0.0620066300034523 -0.11490600556135178 -0.2362954467535019 0.38748976588249207 0.24922294914722443 -0.5491988658905029 0.17225146293640137 -0.19275760650634766 0.10963742434978485 -0.043654195964336395
performance 0.24433501064777374 -0.23935365676879883 0.11574248969554901 0.39846286177635193 0.22926317155361176 -0.1772312968969345 0.08675549924373627 0.19046086072921753 0.3757004141807556 0.21306973695755005 -0.024221787229180336 0.03842614218592644 0.3302438259124756 0.2961622476577759 0.3587351441383362 -0.10316792875528336 -0.4028797745704651 -0.07905614376068115 -0.1382254660129547 0.12095862627029419 -0.6881005764007568 -0.15423384308815002 -0.1677480936050415 0.37806475162506104 -0.07084251195192337 0.27301597595214844 0.15688130259513855 0.3366299569606781 -0.14214135706424713 0.32808223366737366 -0.19521336257457733 -0.1292230188846588 -0.035784438252449036 0.312284380197525 -0.3333374261856079 -0.051758941262960434 -0.2884421944618225 -0.04454511031508446 -0.26523318886756897 0.34900304675102234 -0.07069588452577591 -0.1933329999446869 -0.20889094471931458 0.34935054183006287 0.18856282532215118 -0.5598306655883789 0.15371571481227875 -0.17919617891311646 0.2540666460990906 -0.2291712611913681
beer 0.18633097410202026 -0.4158034026622772 0.09982361644506454 0.11040761321783066 0.4134061336517334 -0.17964541912078857 -0.1332520842552185 -0.008088313974440098 0.36524099111557007 0.1054202988743782 -0.07167856395244598 -0.07092272490262985 0.32102492451667786 0.1745796799659729 0.12608163058757782 0.20866532623767853 -0.2124931365251541 0.12119986861944199 -0.0578133799135685 0.16243690252304077 -0.04492352902889252 0.16900020837783813 -0.2764967679977417 0.07304063439369202 0.05450533330440521 -0.16697055101394653 -0.04640961065888405 0.39972513914108276 0.2703033983707428 -0.03623102977871895 0.18751530349254608 -0.3273533284664154 0.1692439764738083 0.5363801121711731 -0.20380949974060059 -0.1199030950665474 0.06364388763904572 0.303481787443161 -0.01588221825659275 0.20106250047683716 -0.07133470475673676 0.24584104120731354 -0.2637266516685486 0.19019551575183868 0.2588469684123993 -0.5568309426307678 0.2169051617383957 -0.33535319566726685 -0.06566227227449417 -0.008547321893274784
pressure 0.39036065340042114 -0.3278532028198242 -0.1785079389810562 0.292388916015625 0.7417243719100952 -0.3815934658050537 0.33662545680999756 -0.15503613650798798 0.2967522442340851 0.28702062368392944 -0.05572047457098961 0.043356217443943024 -0.03271128609776497 0.062338728457689285 0.47393330931663513 0.19582320749759674 0.13034869730472565 0.05915330350399017 0.21661187708377838 0.1110314205288887 -0.5706405639648438 0.06163181737065315 -0.3627353310585022 0.17665791511535645 -0.38428905606269836 0.1915847510099411 0.24162201583385468 0.3433549106121063 -0.0927511602640152 0.2569131851196289 -0.2519891560077667 -0.3963997960090637 0.24196293950080872 0.3606339693069458 0.2251928597688675 -0.27764663100242615 0.12670066952705383 0.06487605720758438 -0.6202805638313293 0.2911975085735321 -0.20269675552845 -0.4446271061897278 -0.28718629479408264 0.5058135986328125 0.2959284782409668 -0.7111985683441162 0.24934305250644684 0.032929327338933945 0.26860493421554565 -0.1162303164601326
high -0.07541608810424805 -0.28612425923347473 0.10456090420484543 0.4378938674926758 0.5685641765594482 -0.2665693461894989 -0.08554928749799728 0.20095665752887726 0.5826315879821777 0.14751124382019043 -0.21499565243721008 0.17970803380012512 0.3733992278575897 0.07972460240125656 0.2994447350502014 -0.06733202189207077 -0.3117723762989044 -0.04021357744932175 -0.13522189855575562 0.13916005194187164 -0.43536072969436646 -0.08911954611539841 -0.09904921799898148 0.28406232595443726 -0.1755920946598053 0.10024464875459671 0.12154284119606018 0.3481680750846863 0.060234442353248596 0.2134861946105957 -0.42007365822792053 -0.10946827381849289 0.29576608538627625 0.2709644138813019 0.01608148217201233 -0.4429127871990204 -0.1418852061033249 0.08672523498535156 -0.2090916633605957 0.4206143319606781 -0.09351976960897446 -0.32586100697517395 -0.3786867558956146 0.3866730034351349 0.44201457500457764 -0.7382892370223999 0.09876374900341034 -0.06012890860438347 0.20615340769290924 -0.33722344040870667
sanitary 0.09257131069898605 -0.24927787482738495 0.06677281111478806 0.1655072569847107 0.29936110973358154 -0.13942131400108337 0.13177351653575897 0.03380498290061951 0.1790817826986313 0.12799936532974243 -0.14696209132671356 0.039148904383182526 0.16790635883808136 0.15252900123596191 0.21243761479854584 -0.09865983575582504 -0.13822755217552185 -0.0450223833322525 -0.05638075992465019 0.10641414672136307 -0.14801627397537231 -0.005030998028814793 -0.13910607993602753 0.1793731302022934 -0.09127822518348694 0.12786194682121277 0.10527340322732925 0.2146674543619156 0.013487079180777073 0.18820329010486603 -0.14514632523059845 -0.18221385776996613 0.060710761696100235 0.2447434961795807 -0.04969721660017967 -0.07203290611505508 -0.05101241543889046 0.09422861039638519 -0.21036283671855927 0.2320975363254547 -0.014388453215360641 -0.10215701162815094 -0.25522786378860474 0.28194326162338257 0.17255842685699463 -0.45050114393234253 0.1960943341255188 -0.12062428891658783 0.08276215940713882 -0.135691836476326
filling 0.2939569354057312 -0.27626800537109375 0.005916295573115349 0.19734779000282288 0.5049561858177185 -0.03379888832569122 0.2447582632303238 -0.0497143417596817 0.3351919949054718 -0.05111543461680412 0.1086108386516571 -0.02004227042198181 0.2193799912929535 0.1148253083229065 0.5009511113166809 -0.06540413200855255 0.04619612544775009 -0.05618930608034134 0.03710439056158066 0.359998494386673 -0.3526071608066559 -0.04596315696835518 -0.35371050238609314 0.07136251777410507 -0.1652211844921112 -0.17072288691997528 -0.00403882609680295 0.1945645660161972 0.006149469409137964 0.29689547419548035 -0.08729039132595062 -0.26388657093048096 0.18133966624736786 0.49334582686424255 0.05791758373379707 0.09212865680456161 0.15544705092906952 0.5368034243583679 -0.42672550678253174 0.27898097038269043 -0.05020624026656151 0.09826987981796265 -0.5408974885940552 0.28669726848602295 0.4220580756664276 -0.4758639335632324 0.28232279419898987 -0.16506236791610718 -0.00019271842029411346 0.055269621312618256
precision 0.17057883739471436 -0.45925623178482056 0.1679806262254715 0.20898783206939697 0.6679776906967163 0.07063354551792145 0.19173064827919006 0.0615299791097641 0.4914869964122772 -0.056166499853134155 -0.3389374315738678 0.2356749027967453 0.16503694653511047 0.23207557201385498 0.5658709406852722 -0.31925153732299805 -0.22045695781707764 -0.17840439081192017 -0.11687101423740387 0.3144918978214264 -0.18305113911628723 0.05782126262784004 -0.222597137093544 0.40560707449913025 -0.13091006875038147 0.10177897661924362 0.05217801406979561 0.1500057429075241 0.1091672033071518 0.47479188442230225 -0.1992942839860916 -0.3372311294078827 0.11931317299604416 0.5078892111778259 -0.1002373993396759 -0.04388885945081711 0.012486494146287441 0.18011875450611115 -0.5058894157409668 0.6478586196899414 -0.03456758335232735 -0.052210111171007156 -0.5373321175575256 0.5283551216125488 0.46416738629341125 -0.7907254695892334 0.3203577697277069 -0.20375414192676544 -0.17625348269939423 -0.06252922862768173
flow-meter 0.04712668061256409 -0.34829264879226685 0.13621453940868378 0.19107221066951752 0.5958557724952698 -0.0157114677131176 0.20435145497322083 0.07151095569133759 0.39586687088012695 0.09415850043296814 -0.31842008233070374 0.1741904765367508 0.22156605124473572 0.18208761513233185 0.35708630084991455 -0.25512903928756714 -0.1284511834383011 -0.10048117488622665 -0.11200366914272308 0.2108466774225235 -0.11633925884962082 0.06785379350185394 -0.12262029200792313 0.2888679504394531 -0.17140987515449524 0.15261664986610413 0.07623351365327835 0.26063090562820435 0.13191631436347961 0.39867010712623596 -0.23564161360263824 -0.30631425976753235 0.13443034887313843 0.403643935918808 0.0375254862010479 -0.09453137218952179 -0.0051790992729365826 0.21328669786453247 -0.4006580412387848 0.4577685296535492 -0.027178917080163956 -0.14459633827209473 -0.41808056831359863 0.4880999028682709 0.3132001459598541 -0.7243061065673828 0.29546087980270386 -0.14049625396728516 -0.09276646375656128 -0.19669175148010254
accurately 0.21809859573841095 -0.3597893714904785 0.004167475737631321 0.19433711469173431 0.413357675075531 -0.0750650018453598 0.20786702632904053 -0.0545341782271862 0.12881121039390564 0.08978407084941864 -0.18056075274944305 0.043363675475120544 0.13286928832530975 0.18795350193977356 0.4403430223464966 -0.25233522057533264 -0.15356214344501495 -0.14628812670707703 -0.06224336847662926 0.21915213763713837 -0.22984223067760468 -0.11312492936849594 -0.19464293122291565 0.28474000096321106 -0.20618338882923126 0.22630958259105682 0.1231638714671135 0.16311120986938477 -0.051573753356933594 0.3669787347316742 -0.1718718707561493 -0.3593246042728424 -0.020135264843702316 0.3745322525501251 -0.03211824595928192 -0.10520175099372864 -0.09877380728721619 0.20652681589126587 -0.24313874542713165 0.2961273491382599 -0.028605323284864426 -0.17176218330860138 -0.24656197428703308 0.22859013080596924 0.2622135281562805 -0.6916885375976562 0.30068323016166687 -0.20040880143642426 -0.022911114618182182 -0.21823863685131073
controls 0.08979631960391998 -0.4673580527305603 0.14760702848434448 0.13130037486553192 0.43813419342041016 0.02297406829893589 0.2621755003929138 -0.02005738392472267 0.24022257328033447 0.04718070477247238 -0.16980208456516266 0.040108572691679 0.15386059880256653 0.175783172249794 0.3800254762172699 -0.15724529325962067 -0.15087458491325378 -0.14561575651168823 -0.01213962584733963 0.3079206943511963 -0.23069380223751068 -0.011587494052946568 -0.1724408119916916 0.23679207265377045 -0.06635348498821259 0.21749351918697357 0.23850055038928986 0.03745875507593155 -0.010641414672136307 0.30753782391548157 -0.18474292755126953 -0.3654724359512329 0.08675307035446167 0.30434831976890564 -0.13486851751804352 -0.10564224421977997 0.01555058266967535 0.37261566519737244 -0.3970949947834015 0.3737541139125824 -0.024658123031258583 -0.04449453949928284 -0.5564072132110596 0.33640962839126587 0.36846423149108887 -0.7488104104995728 0.3088361322879791 -0.032195355743169785 -0.037193894386291504 0.004867682233452797
reducing 0.14445824921131134 -0.41663992404937744 -0.026228949427604675 0.11398379504680634 0.47848281264305115 -0.009569669142365456 0.20369216799736023 -0.063680499792099 0.09875667840242386 0.011744915507733822 -0.1944466084241867 0.05520489811897278 0.027999306097626686 0.10477901250123978 0.3626670837402344 -0.24131201207637787 -0.10637599229812622 -0.16738945245742798 0.07543836534023285 0.2042217254638672 -0.10105358809232712 0.04083486273884773 -0.21064914762973785 0.32317498326301575 -0.15177996456623077 0.19016660749912262 0.14510490000247955 0.22551973164081573 -0.03734644129872322 0.34687116742134094 -0.2186996191740036 -0.36908939480781555 0.10612624883651733 0.41277623176574707 0.034560542553663254 -0.11141319572925568 0.05823695287108421 0.07164779305458069 -0.33407965302467346 0.35628873109817505 0.006849117111414671 -0.08506487309932709 -0.36262238025665283 0.36881813406944275 0.3780427873134613 -0.7194259166717529 0.4217146933078766 -0.08533208817243576 0.05588323995471001 -0.1385829895734787
loss 0.23354430496692657 -0.3223755657672882 -0.03266613185405731 0.0998024195432663 0.4624902904033661 0.03521933779120445 0.1163249984383583 -0.12623150646686554 0.24628303945064545 -0.14096681773662567 -0.22499462962150574 -0.009369092993438244 0.028152799233794212 0.05108899995684624 0.4429267644882202 -0.19261154532432556 -0.13525597751140594 -0.2077782154083252 0.01463377382606268 0.3007296025753021 -0.15462009608745575 -0.08822309225797653 -0.21942323446273804 0.35865673422813416 -0.18647870421409607 0.1758422553539276 0.04957983270287514 0.14446020126342773 -0.042172759771347046 0.4038406312465668 -0.15411880612373352 -0.3431237041950226 0.17982274293899536 0.5334500670433044 0.020823884755373 -0.15317150950431824 0.14095719158649445 0.13304659724235535 -0.2357684075832367 0.2890247106552124 0.0035144018474966288 -0.06078999862074852 -0.3391001522541046 0.25930750370025635 0.36848363280296326 -0.712547779083252 0.46653246879577637 -0.11524563282728195 0.03987898305058479 -0.23783396184444427
process 0.09287454187870026 -0.4451087713241577 -0.13956515491008759 -0.04775949567556381 0.41540202498435974 -0.12969619035720825 0.28864356875419617 -0.19039613008499146 -0.16984429955482483 0.0345643125474453 -0.10943959653377533 -0.07154438644647598 0.10712211579084396 0.06679514795541763 0.24824926257133484 -0.12071704119443893 -0.021227164193987846 -0.032236989587545395 0.03847528621554375 0.21800735592842102 -0.03845524787902832 0.05828991159796715 -0.22812873125076294 0.1729409098625183 -0.14953753352165222 0.0004867675597779453 0.15866167843341827 0.10469276458024979 0.04087642952799797 0.19991043210029602 -0.18157726526260376 -0.4329834580421448 0.09370844066143036 0.4079569876194 0.1585027277469635 -0.10169552266597748 0.18854446709156036 0.34826457500457764 -0.2393951117992401 -0.013816461898386478 0.10312961786985397 -0.05906154587864876 -0.35331425070762634 0.15084819495677948 0.3905770182609558 -0.7531635165214539 0.4383477568626404 -0.030070696026086807 0.14022457599639893 -0.07026471942663193
automatically 0.14621014893054962 -0.55702143907547 0.03867737203836441 0.09056578576564789 0.3825172185897827 0.10588297247886658 0.25470858812332153 -0.1124429926276207 0.12975706160068512 -0.10160404443740845 -0.08476921916007996 0.06302366405725479 0.11609935015439987 0.15373800694942474 0.4434509575366974 -0.2373984009027481 -0.15595652163028717 -0.25718945264816284 0.07839181274175644 0.25893789529800415 -0.245939701795578 -0.05280987545847893 -0.23152388632297516 0.25465884804725647 -0.009562394581735134 0.1751113384962082 0.1871234029531479 -0.04392176494002342 -0.016278378665447235 0.30963969230651855 -0.1354760080575943 -0.41674500703811646 0.0055695511400699615 0.406307578086853 -0.1863127499818802 -0.0727369412779808 0.021119743585586548 0.3285055160522461 -0.37846559286117554 0.40843749046325684 -0.0076309870928525925 0.03648186847567558 -0.5318140983581543 0.24638892710208893 0.4791840612888336 -0.740318238735199 0.3322111964225769 -0.020693957805633545 -0.030726555734872818 0.03863487392663956
controlled 0.24481922388076782 -0.4272361397743225 0.03929872438311577 0.11767751723527908 0.4457264542579651 0.07297328114509583 0.28195613622665405 -0.13061702251434326 0.16374485194683075 -0.0466950386762619 -0.25744175910949707 -0.07926786690950394 0.07725685834884644 0.21163900196552277 0.4100618362426758 -0.25405073165893555 -0.16476327180862427 -0.22474104166030884 0.03369375690817833 0.3230717182159424 -0.13553375005722046 -0.011020042933523655 -0.25426897406578064 0.3498981297016144 -0.1391686350107193 0.16986620426177979 0.13113664090633392 0.008528044447302818 -0.07470780611038208 0.31390878558158875 -0.0884757786989212 -0.4010090231895447 0.1316928118467331 0.47780144214630127 -0.1368914395570755 -0.008083418942987919 0.08772043883800507 0.2231065034866333 -0.3408677279949188 0.3815363049507141 0.01534018199890852 0.08383655548095703 -0.5082560777664185 0.3526404798030853 0.3005580008029938 -0.7000370621681213 0.38577187061309814 -0.10292095690965652 0.05574683099985123 -0.08428412675857544
flow 0.32335004210472107 -0.604792058467865 -0.29513412714004517 -0.022632546722888947 0.16986210644245148 0.278286874294281 0.3046499490737915 -0.4473678767681122 -0.058993857353925705 -0.18279235064983368 -0.08008421957492828 -0.4126620590686798 -0.020573779940605164 0.16299477219581604 0.45651623606681824 -0.36709749698638916 0.019234538078308105 -0.32129597663879395 0.19285330176353455 0.1878163069486618 -0.2499052733182907 -0.30849161744117737 -0.554754376411438 0.3136126399040222 -0.27636826038360596 0.24857132136821747 0.21096011996269226 0.18201403319835663 -0.17128586769104004 0.2686484158039093 -0.17412930727005005 -0.5099713206291199 -0.04125022888183594 0.5737339854240417 0.02695447951555252 0.004427921026945114 0.11082158237695694 0.28993040323257446 -0.31382614374160767 0.27524101734161377 -0.009766176342964172 -0.04942413046956062 -0.3583395183086395 0.19975636899471283 0.3383020758628845 -0.5690978765487671 0.590441107749939 0.04876192286610603 0.09315893799066544 -0.07919057458639145
rate 0.333934485912323 -0.6642443537712097 -0.38598960638046265 -0.13921783864498138 0.18462063372135162 0.27920860052108765 0.32911524176597595 -0.5166553854942322 -0.31620892882347107 -0.18199968338012695 0.03436410054564476 -0.550397515296936 -0.12413293868303299 0.2537239193916321 0.43329671025276184 -0.35784777998924255 0.1028989776968956 -0.2483181357383728 0.2542742192745209 0.18941856920719147 -0.13982684910297394 -0.33347466588020325 -0.5264377593994141 0.33830446004867554 -0.24316178262233734 0.224685937166214 0.24592745304107666 0.16122114658355713 -0.23519425094127655 0.2616284489631653 -0.144002303481102 -0.6018346548080444 -0.10662507265806198 0.6994851231575012 -0.027705002576112747 0.0013395899441093206 0.14650221168994904 0.27563992142677307 -0.2819879949092865 0.2154805064201355 0.008462890051305294 -0.024378016591072083 -0.35941025614738464 0.28124114871025085 0.36850714683532715 -0.5672769546508789 0.6519609689712524 0.08103913068771362 0.17667773365974426 -0.07897438108921051
lehui 0.18361739814281464 -0.04859944060444832 0.021469352766871452 0.3197670578956604 0.5947287082672119 -0.9738576412200928 0.08764484524726868 0.1637309193611145 0.05993734672665596 0.3237411677837372 -0.07823889702558517 0.4225137531757355 0.3693140745162964 0.21624688804149628 0.20477700233459473 0.14631560444831848 -0.01963823474943638 0.1356469988822937 -0.19630460441112518 0.020066726952791214 0.1674991101026535 0.07264357060194016 -0.33418726921081543 0.0021891104988753796 -0.22291533648967743 -0.17828041315078735 -0.23060135543346405 0.39141327142715454 0.06327193975448608 0.09813263267278671 -0.0730379968881607 -0.1042085587978363 0.08095090836286545 0.502397358417511 0.09108100831508636 -0.16566549241542816 -0.2245500385761261 0.059988364577293396 0.0037042167969048023 0.1909346580505371 0.026557685807347298 -0.29905980825424194 0.009950053878128529 0.056447308510541916 0.25366321206092834 -0.4136011302471161 0.05960414931178093 -0.6553617715835571 0.19237640500068665 -0.478638231754303
acquired 0.059258028864860535 -0.5118809342384338 -0.0926879420876503 0.22922451794147491 0.40264081954956055 -0.20433831214904785 0.13837070763111115 -0.07818163931369781 0.20390887558460236 0.09777199476957321 0.0826009213924408 0.2102380245923996 0.20897194743156433 0.1416027843952179 0.29861682653427124 -0.09344314783811569 -0.13519783318042755 -0.1885872483253479 0.07610974460840225 0.016179213300347328 -0.41719332337379456 -0.13552875816822052 -0.25549954175949097 0.22530415654182434 -0.0646553561091423 0.1468178778886795 0.2497183084487915 0.16907265782356262 -0.04161756485700607 0.19696539640426636 -0.28634047508239746 -0.18061406910419464 0.08286411315202713 0.4241085648536682 -0.24195636808872223 -0.12809376418590546 -0.08695200830698013 -0.2189534455537796 -0.40497732162475586 0.3579341173171997 -0.021890532225370407 -0.165855273604393 -0.3447280526161194 0.37928107380867004 0.34726524353027344 -0.6301169395446777 0.17541369795799255 -0.07499053329229355 0.36825430393218994 -0.20755648612976074
british -0.0028800591826438904 -0.5834153294563293 -0.08969790488481522 0.22659897804260254 0.36771389842033386 -0.21367964148521423 0.1270202100276947 -0.05204443633556366 0.21252481639385223 0.15266306698322296 0.15478557348251343 0.20463114976882935 0.26719027757644653 0.12174457311630249 0.26570773124694824 -0.14726291596889496 -0.1363891214132309 -0.17310532927513123 0.09308141469955444 -0.004924715030938387 -0.45908018946647644 -0.1720457524061203 -0.3074420988559723 0.21559305489063263 -0.058614395558834076 0.15380160510540009 0.3166109025478363 0.20418494939804077 -0.10148778557777405 0.20939284563064575 -0.37235841155052185 -0.19384603202342987 0.10306044667959213 0.39626798033714294 -0.27634456753730774 -0.12006784975528717 -0.1298242211341858 -0.18252988159656525 -0.4234331250190735 0.40251392126083374 -0.003200886771082878 -0.1589721143245697 -0.40974661707878113 0.41394689679145813 0.4135887324810028 -0.6263799071311951 0.20532448589801788 0.0036705208476632833 0.4201248586177826 -0.1579839140176773
microdat -0.07777450233697891 -0.5296756625175476 -0.014949861913919449 0.12709254026412964 0.45429086685180664 -0.22932924330234528 0.16263118386268616 -0.144855797290802 0.3161023259162903 0.2513122856616974 0.018756873905658722 0.17851485311985016 0.30218756198883057 0.03871705010533333 0.22643746435642242 -0.1532924324274063 -0.021993068978190422 -0.03188600018620491 0.075283944606781 -0.1600421816110611 -0.37139126658439636 -0.01811806485056877 -0.3715467154979706 0.09270031750202179 -0.16245438158512115 0.12456157803535461 0.3579499125480652 0.45671963691711426 -0.026090247556567192 0.2034270167350769 -0.40220171213150024 -0.22044113278388977 0.2729625105857849 0.5221654176712036 -0.08556105941534042 -0.0633854940533638 -0.04928377643227577 -0.21400701999664307 -0.6077101826667786 0.4746217727661133 -0.11940685659646988 -0.26918208599090576 -0.35784241557121277 0.6508397459983826 0.21730616688728333 -0.6052165031433105 0.3300430476665497 -0.03913680464029312 0.433566153049469 -0.3246224522590637
company -0.06721210479736328 -0.5662981867790222 0.012228715233504772 0.20971360802650452 0.21074752509593964 -0.1593029499053955 0.20968741178512573 -0.13513778150081635 0.3005138635635376 0.17429587244987488 0.02954125963151455 0.17699724435806274 0.4636525511741638 0.20165562629699707 0.2638152837753296 -0.3067633807659149 -0.14046704769134521 -0.040041252970695496 0.05956224352121353 -0.07701738178730011 -0.4015216827392578 -0.19421863555908203 -0.2872321307659149 0.1624729484319687 0.0559367910027504 0.10972824692726135 0.28874123096466064 0.11073609441518784 -0.061799969524145126 0.21097376942634583 -0.28413471579551697 -0.18019792437553406 0.12703785300254822 0.45877301692962646 -0.4876959025859833 0.08770342916250229 -0.17117686569690704 -0.1266980618238449 -0.45276832580566406 0.49085986614227295 0.04774126783013344 -0.03247818723320961 -0.372512549161911 0.37697431445121765 0.21870671212673187 -0.5664294958114624 0.11133267730474472 -0.1216852217912674 0.32188698649406433 -0.1273232400417328
-year -0.014391322620213032 -0.6469969153404236 -0.022559519857168198 0.12960849702358246 0.15860231220722198 -0.19695070385932922 0.16797055304050446 -0.23192283511161804 0.28132039308547974 0.18278853595256805 0.10408055037260056 0.2144838571548462 0.3473409116268158 0.14000624418258667 0.2874484956264496 -0.22452203929424286 -0.14960859715938568 -0.11161617934703827 0.11214814335107803 -0.10010980814695358 -0.4865860939025879 -0.25853073596954346 -0.3529254198074341 0.10418009757995605 0.0436796098947525 0.23566855490207672 0.38128167390823364 0.0733553096652031 -0.11669617146253586 0.2613815367221832 -0.2940298020839691 -0.23446732759475708 0.09580568224191666 0.47094619274139404 -0.5131157040596008 0.009379442781209946 -0.16450609266757965 -0.1948976367712021 -0.43656784296035767 0.4385761618614197 -0.009781417436897755 -0.08587319403886795 -0.35288986563682556 0.3303581476211548 0.2595111131668091 -0.6231247782707214 0.1708412617444992 -0.08307206630706787 0.36873218417167664 -0.16714787483215332
history 0.007453442085534334 -0.6319292187690735 -0.02245943807065487 0.08871031552553177 0.051625870168209076 -0.18257354199886322 0.16729357838630676 -0.22340773046016693 0.2413860261440277 0.18690545856952667 0.12199100852012634 0.1308308243751526 0.37000706791877747 0.12491299957036972 0.28441882133483887 -0.25717923045158386 -0.19594641029834747 -0.1135639175772667 0.15678654611110687 -0.10331805795431137 -0.4976295232772827 -0.24503928422927856 -0.3721223473548889 0.11606273055076599 0.08268145471811295 0.25993865728378296 0.41270190477371216 0.036495257169008255 -0.16337770223617554 0.2365012913942337 -0.28726309537887573 -0.22857417166233063 0.1394520252943039 0.460666686296463 -0.5500335693359375 0.058665093034505844 -0.1745641827583313 -0.17859633266925812 -0.4237470328807831 0.4408576786518097 -0.01159170363098383 -0.050885070115327835 -0.37036246061325073 0.3123573958873749 0.228883758187294 -0.6055158376693726 0.21637186408042908 -0.018865171819925308 0.4305135905742645 -0.13164223730564117
introducing -0.04276986047625542 -0.6680182814598083 -0.026755440980196 0.08674760907888412 0.056597381830215454 -0.11915835738182068 0.19362777471542358 -0.24977131187915802 0.22796006500720978 0.18716435134410858 0.0840490460395813 0.1173701286315918 0.380515992641449 0.14764828979969025 0.27728620171546936 -0.3158192038536072 -0.21537065505981445 -0.12053123861551285 0.12121843546628952 -0.08148965984582901 -0.519205629825592 -0.30216023325920105 -0.31714755296707153 0.1443505436182022 0.11373338103294373 0.2885817289352417 0.4483705461025238 -0.011198448948562145 -0.15499380230903625 0.2688010632991791 -0.3241192698478699 -0.26970845460891724 0.11314461380243301 0.45219334959983826 -0.6015627980232239 0.07329307496547699 -0.17432428896427155 -0.14152130484580994 -0.43332725763320923 0.41719168424606323 0.015065769664943218 -0.037014130502939224 -0.3778892755508423 0.316805899143219 0.21753105521202087 -0.6671977043151855 0.21699748933315277 0.011533830314874649 0.43129321932792664 -0.14039377868175507
module 0.005389281548559666 -0.6140225529670715 0.11022170633077621 0.013606670312583447 0.13736577332019806 -0.2640836834907532 0.3270202577114105 -0.2878158688545227 0.09948345273733139 0.3328421711921692 -0.11948458850383759 0.04517129436135292 0.26318854093551636 0.29147133231163025 0.2530105412006378 -0.09338098019361496 -0.2114124745130539 -0.0004707055340986699 -0.0030208283569663763 -0.08946863561868668 -0.4095645248889923 -0.25968727469444275 -0.12470708787441254 0.14290854334831238 0.06037352979183197 0.42007166147232056 0.4625456631183624 -0.10320631414651871 -0.11167749762535095 0.27919501066207886 -0.15963320434093475 -0.3361278176307678 0.07312285155057907 0.4048566222190857 -0.6886777281761169 -0.00858990103006363 -0.20763985812664032 -0.08640605956315994 -0.32877081632614136 0.17175742983818054 0.006148769520223141 -0.14694657921791077 -0.3320624530315399 0.33283933997154236 -0.00916875060647726 -0.7484142780303955 0.1668665111064911 -0.1107490211725235 0.3233223557472229 -0.25484564900398254
combination 0.016626158729195595 -0.6119258999824524 0.07826555520296097 0.04239505156874657 0.06159469485282898 -0.10340280830860138 0.17319685220718384 -0.27116408944129944 0.37904953956604004 0.3056907057762146 -0.14664624631404877 0.14088624715805054 0.397193044424057 0.08055910468101501 0.27899178862571716 -0.2527449131011963 -0.22247155010700226 -0.03725302591919899 0.10930263996124268 -0.12344874441623688 -0.5069770216941833 -0.22596818208694458 -0.29741984605789185 0.11320451647043228 0.10435368865728378 0.4141966998577118 0.4182347059249878 0.2057875245809555 -0.05951433628797531 0.3465496003627777 -0.28727036714553833 -0.301050066947937 0.26409250497817993 0.4347625970840454 -0.5898101329803467 0.05166759341955185 -0.14143873751163483 -0.21398034691810608 -0.41637682914733887 0.4448593258857727 -0.017411455512046814 -0.10174164175987244 -0.2635403275489807 0.43654292821884155 0.09445416182279587 -0.7411430478096008 0.2480030208826065 -0.031130651012063026 0.3618716597557068 -0.17784185707569122
maximum -0.049760736525058746 -0.6225953698158264 0.1705017387866974 -0.017889926210045815 -0.03255352005362511 -0.0572730116546154 0.14682304859161377 -0.2840897738933563 0.4223465323448181 0.30100566148757935 -0.1519341766834259 0.15781207382678986 0.29617196321487427 0.019317155703902245 0.3204728066921234 -0.295282781124115 -0.1558648943901062 0.08742118626832962 0.12851989269256592 -0.1577093005180359 -0.5934428572654724 -0.3261527121067047 -0.19830991327762604 0.09740303456783295 0.16868147253990173 0.4077796936035156 0.5170440077781677 0.09565484523773193 -0.11738637834787369 0.45170727372169495 -0.33159127831459045 -0.3621356785297394 0.25707799196243286 0.47104892134666443 -0.7915992140769958 -0.001957355998456478 -0.14156056940555573 -0.16605575382709503 -0.4762851297855377 0.49262183904647827 -0.036736615002155304 -0.1772170066833496 -0.23608262836933136 0.3726937174797058 0.1372993290424347 -0.7686052918434143 0.3017563819885254 0.014150852337479591 0.2189684361219406 -0.19756849110126495
capacity 0.06313000619411469 -0.43328961730003357 0.2495802789926529 -0.006985184736549854 0.0006838241824880242 -0.02754056826233864 0.09330175071954727 -0.059265635907649994 0.37333354353904724 0.21996626257896423 -0.05619572475552559 0.08676324039697647 0.29674050211906433 -0.014488513581454754 0.3575858473777771 -0.35703909397125244 -0.05774533376097679 0.14198477566242218 0.044114451855421066 -0.06026419252157211 -0.526181161403656 -0.21969470381736755 -0.09825350344181061 0.06964800506830215 0.12668229639530182 0.17958757281303406 0.42034587264060974 0.16403266787528992 -0.08926639705896378 0.5103029608726501 -0.30639874935150146 -0.32222291827201843 0.29647067189216614 0.5415274500846863 -0.5865482091903687 0.026393819600343704 -0.0781850665807724 0.019499793648719788 -0.5006315112113953 0.5404675602912903 -0.12723368406295776 -0.17395801842212677 -0.1712891161441803 0.38027212023735046 0.10780277103185654 -0.7391672730445862 0.3598422408103943 0.0016881709452718496 0.16388028860092163 -0.1368364691734314
kegs 0.08010924607515335 -0.5939360857009888 0.4678315222263336 -0.060639671981334686 -0.36396634578704834 -0.034509096294641495 0.17177808284759521 -0.3800985813140869 0.4381359815597534 0.5832051038742065 -0.22988685965538025 0.09670768678188324 0.24451671540737152 -0.11897824704647064 0.3414190113544464 -0.4994063973426819 -0.21158748865127563 0.19311946630477905 0.33616265654563904 -0.39332929253578186 -0.6319195032119751 -0.30365100502967834 -0.12980732321739197 -0.19208689033985138 0.2490200251340866 0.6111077666282654 0.6447938084602356 0.3662620484828949 -0.1505008190870285 0.5393291711807251 -0.13371466100215912 -0.548075795173645 0.31298887729644775 0.7148874998092651 -1.1313273906707764 0.08165206015110016 -0.16095425188541412 -0.2521550953388214 -0.5902100801467896 0.7098827362060547 -0.19408361613750458 -0.27645131945610046 0.02361193299293518 0.5689356923103333 -0.2126201093196869 -0.8855155110359192 0.6522171497344971 -0.1284058690071106 0.180520698428154 -0.48737019300460815
hour 0.07004040479660034 -0.648051917552948 0.44765540957450867 -0.0608278252184391 -0.24223707616329193 0.156366765499115 0.02972845919430256 -0.2583617866039276 0.49804800748825073 0.40168750286102295 -0.3093392550945282 0.15032878518104553 0.11139121651649475 -0.19475294649600983 0.35752254724502563 -0.48486328125 -0.305466890335083 0.03726981580257416 0.23968292772769928 -0.31751009821891785 -0.7198293209075928 -0.3053880035877228 -0.08828272670507431 0.028653837740421295 0.17299659550189972 0.5945357084274292 0.684553325176239 0.31038981676101685 -0.18588802218437195 0.6136500835418701 -0.23992107808589935 -0.5563943386077881 0.3682275712490082 0.750295102596283 -1.0677982568740845 -0.021801641210913658 -0.10248109698295593 -0.2895805537700653 -0.6080352663993835 0.6884623765945435 -0.17231902480125427 -0.30035650730133057 -0.018864190205931664 0.5374457240104675 -0.0429389625787735 -1.026003360748291 0.7331597208976746 0.03264410048723221 0.09715043008327484 -0.48652681708335876
adopting 0.09271296113729477 -0.5028184056282043 0.11231318861246109 0.09407644718885422 0.09450794756412506 -0.024456966668367386 0.20288881659507751 -0.17021596431732178 0.2656523883342743 0.2735031545162201 -0.1512245386838913 0.06735596805810928 0.18965332210063934 0.0504770465195179 0.2838144302368164 -0.3439585566520691 -0.16843879222869873 -0.0496489591896534 0.13111081719398499 -0.06957126408815384 -0.46435797214508057 -0.1950702965259552 -0.20050641894340515 0.1317243129014969 -0.010037939995527267 0.39112091064453125 0.3625320792198181 0.23636479675769806 -0.07506901770830154 0.3786325752735138 -0.2687360346317291 -0.34853291511535645 0.18992012739181519 0.42703941464424133 -0.4343002140522003 -0.004358670674264431 -0.10573408007621765 -0.09548886120319366 -0.46223676204681396 0.4458633065223694 -0.09558527916669846 -0.1930917650461197 -0.16618412733078003 0.4278745651245117 0.05671429634094238 -0.7424623370170593 0.37056484818458557 -0.026699701324105263 0.16344304382801056 -0.2570280134677887
advanced 0.1488385647535324 -0.5324223041534424 0.058578357100486755 0.07748432457447052 0.2923051714897156 -0.06911351531744003 0.3484526574611664 -0.19845981895923615 0.22410370409488678 0.33110493421554565 -0.22465865314006805 0.14833717048168182 0.2928234934806824 0.11567485332489014 0.39328768849372864 -0.3089753985404968 0.06682726740837097 0.1371053159236908 0.09596370905637741 -0.09619583189487457 -0.3765271306037903 -0.1130802109837532 -0.2063550502061844 0.1328153908252716 -0.03758740797638893 0.2685301899909973 0.27946749329566956 0.39657488465309143 0.10434666275978088 0.4017392098903656 -0.2347501963376999 -0.4061829447746277 0.19396498799324036 0.41282758116722107 -0.21744973957538605 0.10188396275043488 -0.07449210435152054 -0.019466178491711617 -0.5717670321464539 0.3882266879081726 -0.11214853823184967 -0.2139284610748291 -0.08783125132322311 0.5238498449325562 0.02538224309682846 -0.7673273682594299 0.2673068046569824 -0.11522778123617172 0.05619308724999428 -0.1287810504436493
machine 0.04461170360445976 -0.3366661071777344 0.2887153625488281 0.20545858144760132 0.17015966773033142 0.022586915642023087 0.18998926877975464 0.12691985070705414 0.19210411608219147 0.10046251863241196 -0.02277068793773651 -0.014550793915987015 0.3813813626766205 0.18619324266910553 0.1777222603559494 -0.33505338430404663 -0.11535823345184326 -0.13767658174037933 -0.09938475489616394 0.1599126160144806 -0.19217047095298767 -0.12484446167945862 -0.1683567315340042 -0.010609300807118416 0.01440979540348053 -0.14998595416545868 0.015836913138628006 0.3574369251728058 0.13643606007099152 0.10026382654905319 -0.15124469995498657 -0.1871718466281891 0.04067317396402359 0.48482123017311096 -0.241164892911911 0.08962423354387283 -0.061443526297807693 0.4596765637397766 -0.35820528864860535 0.44918277859687805 0.03626011312007904 0.0014958061510697007 -0.405752569437027 0.3234778344631195 0.24697817862033844 -0.46036550402641296 0.28701192140579224 -0.16135317087173462 -0.0196620374917984 -0.08490342646837234
design 0.1398363709449768 -0.4195530414581299 0.047708429396152496 0.09660635888576508 0.09205006062984467 -0.18731343746185303 0.40318578481674194 -0.2600872218608856 -0.07599835842847824 0.3374062180519104 -0.3039921224117279 -0.2042751908302307 0.26144352555274963 0.3515665829181671 0.12544812262058258 -0.22223524749279022 -0.26209428906440735 -0.16911321878433228 -0.054275162518024445 0.05629230663180351 0.010098866187036037 -0.30126968026161194 -0.1220063641667366 -0.002003930974751711 -0.04204939305782318 0.39281436800956726 0.18511071801185608 0.028164470568299294 0.11437184363603592 0.11509673297405243 -0.10645779222249985 -0.1855003386735916 -0.012424197979271412 0.35566234588623047 -0.31372272968292236 0.06058407947421074 -0.16351528465747833 0.03661022707819939 -0.052452534437179565 0.16307620704174042 -0.01632368192076683 -0.14445200562477112 -0.3051172196865082 0.24853970110416412 -0.19968633353710175 -0.6035283803939819 0.25000202655792236 -0.2438574880361557 0.2635349929332733 -0.3279254734516144
technology 0.10146750509738922 -0.12108481675386429 0.09857495129108429 0.6389878392219543 0.7264705300331116 -0.4625186026096344 0.29207679629325867 0.2127782553434372 0.4432721734046936 0.36532163619995117 -0.11576727032661438 0.3564956486225128 0.19681477546691895 0.2932640314102173 0.33453840017318726 0.0288191307336092 -0.11142425239086151 -0.2004667967557907 -0.1549052894115448 0.14934001863002777 -0.5896129012107849 -0.12023908644914627 -0.08126652985811234 0.2652890980243683 -0.4113963544368744 0.21493646502494812 0.2160452902317047 0.2376803606748581 -0.08387091010808945 0.3730123043060303 -0.4012715220451355 -0.06788071244955063 0.09068665653467178 0.4709346294403076 -0.2332431823015213 -0.18083709478378296 -0.2974010109901428 -0.22749583423137665 -0.48700350522994995 0.5871873497962952 -0.1646631807088852 -0.4995592534542084 -0.31499603390693665 0.5925922393798828 0.19137299060821533 -0.6472965478897095 0.05056669935584068 -0.1608806848526001 0.30339479446411133 -0.5480865240097046
manufacture 0.14420028030872345 -0.2746909260749817 -0.03037031553685665 0.4638785421848297 0.46148133277893066 -0.3824087679386139 0.5066288113594055 -0.06864432245492935 0.16252121329307556 0.6400631070137024 0.1966390311717987 0.19827024638652802 0.27133259177207947 0.11362521350383759 0.15809544920921326 -0.020448852330446243 0.27517348527908325 -0.006140929646790028 0.07581422477960587 -0.05658060312271118 -0.6787779331207275 -0.35980328917503357 -0.22213411331176758 -0.21387359499931335 -0.2856941521167755 0.29169222712516785 0.24300676584243774 0.6027482748031616 0.13466067612171173 0.1936723291873932 -0.2719261050224304 -0.21924643218517303 -0.02262529730796814 0.28608015179634094 -0.11574380844831467 -0.09959455579519272 -0.2825426757335663 0.058385852724313736 -0.5143861770629883 0.502194881439209 -0.28699254989624023 -0.5919991135597229 -0.05946575477719307 0.564928412437439 -0.037717968225479126 -0.5976260304450989 0.2190212607383728 -0.15301953256130219 0.18972790241241455 -0.37700900435447693
modular -0.062081120908260345 -0.5853785276412964 0.24445287883281708 -0.028491249307990074 0.44934403896331787 -0.19037291407585144 0.5084269642829895 -0.22541244328022003 -0.32415926456451416 0.42222970724105835 -0.45124682784080505 -0.052655886858701706 0.027660757303237915 0.20904870331287384 0.1147988811135292 -0.2133369892835617 -0.01973983831703663 0.14174635708332062 0.019417477771639824 -0.09754709899425507 0.12379389256238937 -0.12190350890159607 0.23045729100704193 0.13716641068458557 -0.084578737616539 0.12863267958164215 0.4127293825149536 0.05331612005829811 -0.007540248800069094 0.3941670060157776 -0.15312224626541138 -0.46558281779289246 0.20910675823688507 0.6793199777603149 -0.5968038439750671 -0.02032676711678505 0.0819125548005104 -0.3103227913379669 -0.3907584249973297 0.0047905645333230495 0.13660137355327606 -0.10875112563371658 -0.27604642510414124 0.5017374753952026 -0.22605596482753754 -0.9100228548049927 0.4397604167461395 -0.2866222560405731 0.17022155225276947 -0.5194942951202393
equipment 0.47505733370780945 -0.0041227927431464195 0.006312739569693804 0.20655447244644165 0.35596713423728943 -0.997456967830658 -0.16505303978919983 -0.07339246571063995 0.19398283958435059 0.44178739190101624 -0.09665033966302872 -0.09711677581071854 0.4604528248310089 0.12221842259168625 -0.01701713167130947 0.3284111022949219 -0.19936853647232056 0.2565310597419739 -0.14749155938625336 -0.04766242578625679 0.25876957178115845 0.0610974058508873 -0.5141081213951111 -0.27393636107444763 -0.1389789879322052 -0.12599296867847443 -0.17725975811481476 0.720019519329071 0.09521408379077911 -0.05523896589875221 0.29384416341781616 -0.2365344613790512 0.3704613745212555 0.8043359518051147 -0.043720636516809464 -0.1787933111190796 -0.06932394206523895 0.24202685058116913 0.4585971236228943 0.008122909814119339 -0.08516152203083038 -0.1475726068019867 0.08585093170404434 0.006650666706264019 -0.1771017163991928 -0.40128350257873535 0.4382569491863251 -0.8950150012969971 0.4298332631587982 -0.6814273595809937
self-cleaning 0.1043231412768364 -0.38017669320106506 0.08620014786720276 0.2220129519701004 0.442373663187027 -0.04299411177635193 0.30170127749443054 -0.055629368871450424 0.16081389784812927 0.22734881937503815 -0.1741151064634323 -0.019007883965969086 0.18360869586467743 0.12701480090618134 0.2532609701156616 -0.2512610852718353 -0.003584491088986397 0.0016508190892636776 0.06801339238882065 0.018373148515820503 -0.2557946443557739 -0.019736146554350853 -0.1987815499305725 0.15481685101985931 -0.1825542151927948 0.1505066603422165 0.19241850078105927 0.4311901032924652 0.02104857563972473 0.20543156564235687 -0.21491225063800812 -0.31672170758247375 0.15863248705863953 0.4034039378166199 -0.05720425397157669 -0.036209676414728165 -0.025832170620560646 0.12868809700012207 -0.48081690073013306 0.4408903419971466 -0.13017286360263824 -0.19504517316818237 -0.2685379385948181 0.5392671823501587 0.09509669989347458 -0.609967827796936 0.4022423028945923 -0.0894525945186615 0.062359001487493515 -0.21307232975959778
available 0.07058735191822052 -0.4120939075946808 0.3057454824447632 0.03311464190483093 0.2613818049430847 -0.005016973242163658 0.28056755661964417 -0.207644984126091 0.24033871293067932 0.23900051414966583 -0.41628536581993103 0.013826282694935799 0.06924648582935333 0.038504183292388916 0.36295759677886963 -0.33774083852767944 -0.1616474986076355 0.036765508353710175 0.05069978907704353 -0.10628931224346161 -0.24266017973423004 -0.05261418595910072 -0.08316617459058762 0.15946434438228607 -0.15090107917785645 0.34321486949920654 0.40337952971458435 0.11574126780033112 -0.24364645779132843 0.4863579273223877 -0.11212621629238129 -0.537686824798584 0.2307172268629074 0.6425290107727051 -0.521260678768158 -0.067934550344944 -0.042139530181884766 0.09239202737808228 -0.4940650463104248 0.45942890644073486 -0.11863647401332855 -0.24027681350708008 -0.23494160175323486 0.37349095940589905 -0.029393693432211876 -0.7478281855583191 0.6278073191642761 -0.15903699398040771 -0.08150465786457062 -0.46288472414016724
cleaning -0.018759289756417274 -0.4011024534702301 0.04837292432785034 -0.13066168129444122 0.22957079112529755 -0.05679147690534592 0.11810336261987686 -0.20625540614128113 0.2920758128166199 0.04686262458562851 -0.06556006520986557 -0.2161407619714737 0.03348372131586075 -0.10330615192651749 0.15288937091827393 -0.005594152957201004 -0.007329682353883982 -0.017640260979533195 0.08438710868358612 0.11386453360319138 -0.1786598116159439 -0.18214863538742065 -0.36511319875717163 -0.07066817581653595 -0.0753987580537796 0.08001328259706497 0.23677819967269897 0.31045854091644287 0.03819941729307175 0.15171954035758972 -0.19654051959514618 -0.3439507782459259 0.28815847635269165 0.5259338021278381 -0.08015724271535873 -0.1398373693227768 0.2247033417224884 0.42362451553344727 -0.3394937813282013 0.1708468496799469 -0.05510342866182327 -0.1797206550836563 -0.4325542747974396 0.3455737233161926 0.3288443386554718 -0.4888756275177002 0.6250005960464478 0.11108972877264023 0.012574255466461182 -0.1768445521593094
head 0.07108376175165176 -0.23654398322105408 0.14253129065036774 0.19329938292503357 0.3884424567222595 0.17646867036819458 0.33607742190361023 -0.2095676064491272 0.2788562774658203 -0.04002699628472328 -0.3982815444469452 -0.17419429123401642 0.11545679718255997 -0.05585397779941559 0.3401852250099182 -0.5381195545196533 0.0682341679930687 -0.04207320883870125 0.10591573268175125 0.06530440598726273 -0.2757768929004669 -0.1146482303738594 -0.28598180413246155 0.2555276155471802 -0.2622016370296478 0.11347483098506927 0.11635243892669678 0.47091957926750183 -0.1656358540058136 0.19175904989242554 -0.3747421205043793 -0.4438413679599762 0.2988383173942566 0.5738019347190857 -0.056668996810913086 -0.17596878111362457 -0.004206643905490637 0.4008578062057495 -0.5194680094718933 0.7247823476791382 -0.22246773540973663 -0.33891794085502625 -0.26396405696868896 0.4249725043773651 0.2325288951396942 -0.5650107860565186 0.7303213477134705 0.0032464228570461273 -0.11329800635576248 -0.37857407331466675
ordinary 0.010176662355661392 -0.36040642857551575 0.0865878090262413 0.1994601935148239 0.5410386323928833 -0.11197726428508759 0.23418095707893372 0.031033668667078018 0.1213766410946846 0.21670903265476227 -0.09505501389503479 -0.00772826699540019 0.18223059177398682 0.08506225049495697 0.1899540275335312 -0.19170422852039337 0.04968402534723282 -0.014633490703999996 0.0005291188135743141 0.029076822102069855 -0.17837665975093842 -0.008341400884091854 -0.21914561092853546 0.10529972612857819 -0.25035256147384644 0.01587212085723877 0.18740038573741913 0.5996946692466736 0.038413554430007935 0.14544206857681274 -0.3105107247829437 -0.31832456588745117 0.1585083156824112 0.4444234073162079 0.08572263270616531 -0.1569954752922058 -0.005002875346690416 0.23313002288341522 -0.43723419308662415 0.3821195065975189 -0.11017192155122757 -0.2920893132686615 -0.31941723823547363 0.5484284162521362 0.24134573340415955 -0.5792331695556641 0.4917201101779938 -0.07196508347988129 0.10384507477283478 -0.27959415316581726
able 0.12952180206775665 -0.2499334216117859 -0.09802935272455215 0.5295395255088806 0.7950662970542908 -0.36564627289772034 0.40539759397506714 0.028924569487571716 0.11106690764427185 0.4168398380279541 0.07628869265317917 0.25546717643737793 0.24031320214271545 0.1746281087398529 0.3063408434391022 -0.017993194982409477 0.2583829462528229 -0.04529130458831787 -0.035036347806453705 0.044923365116119385 -0.4104665517807007 -0.1299697607755661 -0.18070416152477264 0.05323946475982666 -0.5277889966964722 0.011557159014046192 0.1380835473537445 0.6395933032035828 0.0780075341463089 0.2413097470998764 -0.3413410186767578 -0.2611856758594513 -0.050568606704473495 0.4211540222167969 0.2232988476753235 -0.19599072635173798 -0.17216181755065918 0.07008188962936401 -0.5014668107032776 0.42061367630958557 -0.21689769625663757 -0.547753095626831 -0.1975773721933365 0.47761210799217224 0.20370429754257202 -0.6083137392997742 0.20493140816688538 -0.2294716089963913 0.12413006275892258 -0.43114835023880005
achieve 0.06604566425085068 -0.37136250734329224 0.061249028891325 0.1596744805574417 0.4470442831516266 -0.14545442163944244 0.25600892305374146 -0.07551370561122894 0.11694639176130295 0.157456636428833 -0.11109192669391632 -0.05139204114675522 0.2710013687610626 0.07686911523342133 0.17554545402526855 -0.1990954726934433 0.07157635688781738 -0.03507173806428909 -0.028039753437042236 0.12311232089996338 -0.01990276575088501 -0.08710350841283798 -0.2449946254491806 0.10011973977088928 -0.24603672325611115 0.03080766648054123 0.055171769112348557 0.5466854572296143 0.10979441553354263 0.09860043227672577 -0.2977806627750397 -0.28804725408554077 0.20724691450595856 0.4866555631160736 0.07895679026842117 -0.09158560633659363 -0.024803033098578453 0.3372063934803009 -0.27729251980781555 0.32023680210113525 -0.06918217986822128 -0.22944936156272888 -0.31441041827201843 0.39999935030937195 0.19962584972381592 -0.5882793068885803 0.3976781368255615 -0.13892510533332825 0.11566369235515594 -0.2848755419254303
key -0.09160740673542023 -0.4692186415195465 0.05461794137954712 0.18598371744155884 0.43062305450439453 -0.1636858433485031 0.09878969937562943 0.043585583567619324 0.34829217195510864 0.24724361300468445 0.04645000770688057 0.21777762472629547 0.39293617010116577 0.04881514236330986 0.22937601804733276 -0.21955814957618713 -0.0838296189904213 -0.050773587077856064 0.031779948621988297 0.033548902720212936 -0.3603867292404175 -0.033886685967445374 -0.3077513873577118 0.09985324740409851 -0.08326753973960876 0.14629030227661133 0.1995474249124527 0.4767690598964691 0.09175259619951248 0.1905837506055832 -0.38784167170524597 -0.2565544843673706 0.15117383003234863 0.30836501717567444 0.0502670519053936 -0.18160177767276764 -0.09505179524421692 0.21880704164505005 -0.37433862686157227 0.4506501257419586 -0.11761093884706497 -0.24919191002845764 -0.31515276432037354 0.48290032148361206 0.4243859648704529 -0.6670928001403809 0.28356656432151794 -0.0002987041661981493 0.17428268492221832 -0.18576334416866302
advantages 0.07281096279621124 -0.17363566160202026 0.013392262160778046 0.6870316863059998 0.9231874346733093 -0.6734071373939514 0.11514265090227127 0.3448086678981781 0.384910523891449 0.6377682089805603 0.11341018229722977 0.4725377857685089 0.3908909559249878 0.09060957282781601 0.2667902112007141 0.09407928586006165 0.007111197803169489 0.07493749260902405 -0.0734950453042984 -0.005910297855734825 -0.7349082827568054 -0.00920727290213108 -0.05018841102719307 0.23019665479660034 -0.3797178268432617 0.13965602219104767 0.1535407453775406 0.9170836210250854 -0.023053549230098724 0.31958693265914917 -0.5631585121154785 -0.1379181444644928 0.2069883644580841 0.2939959168434143 0.16344445943832397 -0.5276739001274109 -0.2974409759044647 -0.11486216634511948 -0.4146316349506378 0.5009114742279053 -0.23886877298355103 -0.6869239211082458 -0.07020457088947296 0.6904162764549255 0.44984233379364014 -0.8886797428131104 0.17294681072235107 -0.19005535542964935 0.49245485663414 -0.5293196439743042
stable -0.04186328500509262 -0.1903626024723053 0.19878481328487396 0.1674547791481018 0.4746316969394684 -0.18415527045726776 -0.09326305240392685 0.03383706137537956 0.3150361180305481 -0.09865839034318924 -0.43666937947273254 0.05415162071585655 0.3478569984436035 -0.09211929142475128 0.16731247305870056 -0.302004337310791 -0.33729198575019836 -0.026878323405981064 -0.05359025299549103 -0.07488226890563965 0.2377145141363144 0.20024482905864716 -0.239740788936615 0.15699917078018188 -0.06022538244724274 -0.16155408322811127 -0.09137725085020065 0.3401087820529938 0.09739129990339279 0.03917565196752548 -0.08262281119823456 -0.2531895041465759 0.42101219296455383 0.7600170373916626 0.09887731820344925 -0.2433837503194809 0.07206868380308151 0.2840222418308258 -0.125235915184021 0.3839395344257355 -0.020050078630447388 -0.11787361651659012 -0.3695439398288727 0.31982260942459106 0.40389999747276306 -0.5769678950309753 0.5731914043426514 -0.27864110469818115 0.049566544592380524 -0.4889722168445587
accuracy -0.07329056411981583 -0.3556310832500458 0.04090604931116104 0.15791431069374084 0.34398895502090454 -0.35017070174217224 0.1314731240272522 0.016496043652296066 0.19455459713935852 0.3092232644557953 0.010335593484342098 0.11847276985645294 0.39989563822746277 0.05261559784412384 0.14335772395133972 -0.15499506890773773 -0.06308996677398682 0.04118076339364052 -0.003774193814024329 0.01966269128024578 -0.1810092031955719 -0.03992162272334099 -0.2830834984779358 0.04840071126818657 -0.08818665891885757 0.11878252774477005 0.180724635720253 0.48559457063674927 0.024484356865286827 0.12061341851949692 -0.3940665125846863 -0.19747567176818848 0.20611822605133057 0.26978394389152527 0.09137332439422607 -0.1415424793958664 -0.11553598940372467 0.17264823615550995 -0.2595587968826294 0.29226598143577576 -0.058071624487638474 -0.23511627316474915 -0.30155304074287415 0.417443186044693 0.3212498128414154 -0.5676801204681396 0.29272302985191345 -0.06591925770044327 0.3306215703487396 -0.24838322401046753
using 0.046929921954870224 -0.309456467628479 -0.02942533604800701 0.6677187085151672 0.9520283341407776 -0.6522977352142334 0.20341329276561737 0.27816325426101685 0.45909419655799866 0.4555957317352295 0.037715502083301544 0.3813072443008423 0.3433375954627991 0.14314833283424377 0.2764301300048828 0.15798434615135193 -0.054738160222768784 0.006061841268092394 -0.054418228566646576 0.022592417895793915 -0.7381370663642883 0.0011657823342829943 -0.2819083631038666 0.24146190285682678 -0.47485506534576416 0.0776253417134285 0.22414778172969818 0.8346847891807556 0.013277013786137104 0.17314836382865906 -0.6154542565345764 -0.09967516362667084 0.2094523161649704 0.39996492862701416 0.14547722041606903 -0.4057641923427582 -0.18763428926467896 -0.12447003275156021 -0.5763466358184814 0.5774509310722351 -0.20670348405838013 -0.6751512885093689 -0.34672489762306213 0.79694002866745 0.44908204674720764 -0.7901204824447632 0.15192946791648865 -0.04534701630473137 0.527794599533081 -0.4764418303966522
special -0.12303101271390915 -0.42591527104377747 -0.018974995240569115 -0.2130342572927475 0.2309560924768448 -0.3507770001888275 0.2195972353219986 -0.24465662240982056 -0.2029009908437729 0.21769015491008759 -0.043405432254076004 -0.05374450236558914 0.36868613958358765 0.0483461394906044 -0.011891404166817665 -0.23544707894325256 0.10497646778821945 0.13199953734874725 0.14335539937019348 -0.03264284133911133 0.47577759623527527 0.0760498121380806 -0.27402523159980774 -0.14785341918468475 0.03070908784866333 -0.15936881303787231 0.23517096042633057 0.15642568469047546 0.05673958361148834 0.0938376635313034 -0.24914328753948212 -0.23907439410686493 0.4114280939102173 0.578252911567688 -0.033808883279561996 0.14619246125221252 0.1508534848690033 0.05346420407295227 -0.07265782356262207 0.08630524575710297 0.122149258852005 0.037245288491249084 -0.5433237552642822 0.3253136873245239 0.14611341059207916 -0.5694354772567749 0.5194556713104248 -0.17189675569534302 0.5426216721534729 -0.21261322498321533
designed -0.3261568546295166 -0.3167164623737335 0.1009746789932251 0.23697233200073242 0.7721822261810303 -0.5960626006126404 0.29722827672958374 0.14612548053264618 -0.016357433050870895 0.46340689063072205 -0.13279569149017334 0.23332959413528442 0.27906209230422974 0.08343621343374252 -0.0025507817044854164 0.15654903650283813 0.13834704458713531 0.18701912462711334 -0.1981351226568222 0.02068207412958145 -0.09823274612426758 -0.006120302714407444 0.04136662185192108 0.05649123340845108 -0.35299429297447205 -0.14110521972179413 0.3116139769554138 0.3942369818687439 -0.0778166875243187 0.19718065857887268 -0.47440630197525024 -0.30692049860954285 0.2188204973936081 0.3581342399120331 -0.07520423829555511 -0.3162563741207123 -0.07169540226459503 0.0828653872013092 -0.3123989701271057 0.0751088485121727 0.038270048797130585 -0.4416011571884155 -0.3134201765060425 0.44713279604911804 0.2648361027240753 -0.643831193447113 0.2773627042770386 -0.14021125435829163 0.2533387541770935 -0.47800201177597046
peristaltic -0.11926477402448654 -0.44114410877227783 0.08102299273014069 0.014094493351876736 0.39063310623168945 -0.233910471200943 0.12230180203914642 -0.06268023699522018 0.12799330055713654 0.19445069134235382 -0.009652131237089634 0.07527101784944534 0.25427234172821045 -0.00728989951312542 0.13666267693042755 -0.19046121835708618 0.03491127863526344 -0.01885228417813778 0.020705154165625572 -0.01971917413175106 -0.08246497064828873 -0.08514392375946045 -0.25106459856033325 -0.019897472113370895 -0.12935367226600647 -0.021525975316762924 0.264546662569046 0.40979233384132385 0.019596721976995468 0.2005200833082199 -0.39808592200279236 -0.26930156350135803 0.2507924735546112 0.4872977137565613 -0.018648331984877586 -0.13120628893375397 0.0715627670288086 0.0908990129828453 -0.38896363973617554 0.28855428099632263 0.005140934605151415 -0.22831539809703827 -0.3739359974861145 0.4379570186138153 0.2896115481853485 -0.6041345596313477 0.4522227942943573 -0.043445661664009094 0.2674345076084137 -0.3070589303970337
pump -0.022840483114123344 -0.45808106660842896 0.06563905626535416 -0.22523920238018036 0.2520684599876404 -0.43965277075767517 0.09674055129289627 -0.34193986654281616 -0.15270335972309113 0.08456104248762131 -0.34392595291137695 -0.21024931967258453 0.25415143370628357 -0.02878287062048912 0.08853888511657715 -0.13286440074443817 -0.02571464702486992 0.17851939797401428 -0.2440938949584961 -0.032947514206171036 0.33167117834091187 -0.08452561497688293 -0.21009832620620728 0.11171676218509674 -0.23047930002212524 0.05922122299671173 0.39249029755592346 -0.028931906446814537 -0.05097956210374832 0.16371962428092957 -0.14178775250911713 -0.3838505744934082 0.3303213119506836 0.403217613697052 -0.017950352281332016 -0.1194707527756691 0.14965254068374634 0.3238794207572937 -0.023576684296131134 -0.28364700078964233 0.3205599784851074 -0.07526065409183502 -0.3898332417011261 -0.028313588351011276 0.051692038774490356 -0.7187849879264832 0.5026695132255554 -0.18101076781749725 0.15475353598594666 -0.47015804052352905
pulse -0.1180773675441742 -0.4156825840473175 0.16419841349124908 0.005729049909859896 0.3032568693161011 -0.24146467447280884 0.15321314334869385 -0.09386103600263596 0.21080683171749115 0.2802899181842804 -0.1334695816040039 0.04787376523017883 0.3368341326713562 0.03705855831503868 0.12709982693195343 -0.17617696523666382 -0.015008041635155678 0.048304397612810135 -0.04801659658551216 -0.026973668485879898 -0.07419878989458084 -0.10542277246713638 -0.1989130675792694 -0.05405477434396744 -0.08993378281593323 0.06938910484313965 0.2812904417514801 0.4023202061653137 0.06392518430948257 0.22232893109321594 -0.3367890417575836 -0.26070812344551086 0.27587589621543884 0.47651681303977966 -0.10613883286714554 -0.07728780806064606 0.03258787468075752 0.13910897076129913 -0.3649676442146301 0.2713368833065033 0.003940043039619923 -0.21459460258483887 -0.37411412596702576 0.4280169606208801 0.16410186886787415 -0.6123425364494324 0.42228129506111145 -0.11668574064970016 0.24142347276210785 -0.33512094616889954
single 0.06717747449874878 -0.3165740668773651 0.2050895392894745 0.09625538438558578 0.14106658101081848 -0.20983272790908813 0.0619707815349102 0.06517782062292099 0.15482784807682037 0.19461281597614288 0.016851229593157768 -0.03274796903133392 0.352302223443985 0.13434337079524994 0.1426456868648529 -0.14183452725410461 -0.1910015493631363 -0.10687438398599625 -0.12541235983371735 0.13090713322162628 -0.1368573158979416 -0.14215078949928284 -0.23223145306110382 -0.07996759563684464 -0.04838325455784798 -0.01899200677871704 0.10736054182052612 0.34360823035240173 0.05358104780316353 0.1485634446144104 -0.16521787643432617 -0.1695100963115692 0.07812163233757019 0.4583296477794647 -0.15263347327709198 -0.012803426012396812 -0.07611598074436188 0.31840524077415466 -0.13612483441829681 0.19378651678562164 0.032500799745321274 -0.06821383535861969 -0.34667086601257324 0.19066406786441803 0.21098634600639343 -0.4798090159893036 0.38349688053131104 -0.205210879445076 0.12775461375713348 -0.2619253993034363
combined 0.015361009165644646 -0.3286215364933014 0.5201600790023804 0.04683547094464302 0.12481215596199036 0.3703940808773041 0.24640154838562012 -0.08694031834602356 0.16809199750423431 -0.2630460262298584 -0.5317461490631104 -0.021404223516583443 0.19169561564922333 0.09403027594089508 0.3122286796569824 -0.562035083770752 -0.29733121395111084 -0.2183855026960373 -0.1403840184211731 0.1451098769903183 0.056860558688640594 -0.17314240336418152 0.13308116793632507 0.18056727945804596 0.16408565640449524 -0.07825769484043121 -0.013721498660743237 -0.13977476954460144 0.15427668392658234 0.27595609426498413 0.04872868210077286 -0.45091280341148376 0.024956561625003815 0.8201795816421509 -0.6869357228279114 -0.017545994371175766 0.017423106357455254 0.6367990374565125 -0.31181439757347107 0.5084315538406372 0.11561118066310883 -0.0008173570968210697 -0.42787227034568787 0.1842425912618637 0.3306260108947754 -0.7462841272354126 0.6205047369003296 -0.15423482656478882 -0.4523390531539917 -0.3065573275089264
machines 0.12085722386837006 -0.31130731105804443 0.28633323311805725 0.056507036089897156 -0.058219946920871735 -0.16253168880939484 0.19381378591060638 -0.22705703973770142 0.2600197494029999 0.3718409836292267 -0.2881583571434021 -0.05906320735812187 0.2886234223842621 0.1755673885345459 0.22139587998390198 -0.24519678950309753 -0.282768189907074 0.06143313646316528 -0.015901867300271988 -0.04716435819864273 -0.3590642511844635 -0.2609797418117523 0.015012090094387531 0.03198480233550072 0.07427587360143661 0.35955217480659485 0.3398635983467102 0.1241087093949318 -0.056012582033872604 0.39875736832618713 -0.1009979248046875 -0.35310181975364685 0.1963444948196411 0.5907632112503052 -0.7361018061637878 0.06466449797153473 -0.13111723959445953 -0.022839734330773354 -0.20909970998764038 0.27516379952430725 -0.04102340340614319 -0.13016895949840546 -0.13865679502487183 0.2754596471786499 -0.1825782209634781 -0.768854558467865 0.3853914141654968 -0.24636700749397278 0.23176749050617218 -0.4687230587005615
expanding 0.09907134622335434 -0.50576251745224 0.30072277784347534 -0.0410422720015049 -0.10916794836521149 -0.028136108070611954 0.1818035989999771 -0.3179914057254791 0.2448514699935913 0.27686402201652527 -0.32782453298568726 -0.030592072755098343 0.26103466749191284 0.0816793143749237 0.2626717686653137 -0.3578638434410095 -0.27977511286735535 -0.02745405025780201 0.07669725269079208 -0.046137094497680664 -0.25603899359703064 -0.26564547419548035 -0.08606823533773422 -0.0030442134011536837 0.13411667943000793 0.3678920567035675 0.3687838315963745 0.10234971344470978 0.021303553134202957 0.39568766951560974 -0.08817413449287415 -0.44254031777381897 0.19462771713733673 0.6668835878372192 -0.7349075675010681 0.06817398965358734 -0.03189132735133171 0.06890308856964111 -0.2758179008960724 0.364068865776062 -0.015722310170531273 -0.09615273028612137 -0.23308415710926056 0.2945329546928406 -0.06667470186948776 -0.8512959480285645 0.5340660810470581 -0.1908745914697647 0.1216195598244667 -0.3689708113670349
production 0.025261009112000465 -0.29726430773735046 0.3493439257144928 0.20898869633674622 0.15783853828907013 -0.3172841966152191 0.11831074208021164 0.1062520295381546 0.11817605048418045 0.368380069732666 -0.034992340952157974 0.08507414907217026 0.2901456654071808 0.23502090573310852 0.0773492380976677 -0.15004394948482513 -0.14135295152664185 0.15061715245246887 -0.09351897984743118 0.09887802600860596 -0.055549103766679764 -0.10901538282632828 0.015707336366176605 0.00461544981226325 -0.04054250568151474 -0.11096089333295822 0.11913999170064926 0.27972355484962463 -0.027117080986499786 0.19176194071769714 -0.09675875306129456 -0.22753724455833435 0.012674794532358646 0.5435249209403992 -0.6425439715385437 -0.01703687012195587 -0.19180533289909363 0.05080810934305191 -0.13590411841869354 0.34918859601020813 0.051704101264476776 0.04485096409916878 -0.2222871035337448 0.1193910539150238 0.05252479389309883 -0.504284143447876 0.2513667643070221 -0.3980734050273895 -0.05265311896800995 -0.3210664689540863
adapting 0.12436947226524353 -0.5313102006912231 0.28698185086250305 -0.014179248362779617 -0.19954319298267365 -0.01207974087446928 0.17325924336910248 -0.2816442847251892 0.16745412349700928 0.3409901261329651 -0.19160769879817963 -0.07498841732740402 0.23802220821380615 0.016579585149884224 0.2642408013343811 -0.41340166330337524 -0.31275808811187744 0.0029174054507166147 0.1723482459783554 -0.07418416440486908 -0.4560442864894867 -0.3399255871772766 -0.09308633208274841 0.02437577210366726 0.16321754455566406 0.4703068733215332 0.4568345546722412 0.13534969091415405 -0.11122370511293411 0.4237053692340851 -0.14410169422626495 -0.521856963634491 0.15995818376541138 0.6318466067314148 -0.7969855070114136 -0.023236116394400597 -0.09095825254917145 0.15003900229930878 -0.24270932376384735 0.35606488585472107 -0.04715575650334358 -0.1682998538017273 -0.11958029121160507 0.2477366328239441 0.017672816291451454 -0.9324829578399658 0.6101363301277161 -0.07409276813268661 0.14156898856163025 -0.3828454911708832
multiple 0.0005403308314271271 -0.6099269390106201 0.20272904634475708 -0.18490546941757202 -0.18677660822868347 0.09003326296806335 0.12638580799102783 -0.4148359000682831 0.1651923954486847 0.15626080334186554 -0.18443068861961365 0.009439866058528423 0.17125554382801056 -0.08472747355699539 0.24238891899585724 -0.43775779008865356 -0.27382832765579224 -0.04067516326904297 0.2678294777870178 -0.10341501981019974 -0.2682572901248932 -0.26424241065979004 -0.19194424152374268 -0.02901139110326767 0.21003051102161407 0.3846055865287781 0.3903037905693054 0.1110662966966629 -0.04279182851314545 0.3768311142921448 -0.14618998765945435 -0.5546494126319885 0.17979174852371216 0.7136842608451843 -0.6412574648857117 0.018351206555962563 0.051361460238695145 0.10490546375513077 -0.26414626836776733 0.38881629705429077 -0.02931644767522812 -0.04905743896961212 -0.1684395968914032 0.24371318519115448 0.15353885293006897 -0.8569496870040894 0.6383991241455078 -0.026163825765252113 0.0316496416926384 -0.2808869183063507
types 0.04488024488091469 -0.5760840177536011 0.21971644461154938 -0.02068413235247135 -0.1465729922056198 -0.06016712635755539 0.1830509901046753 -0.24808330833911896 0.14004391431808472 0.3624384105205536 -0.10744352638721466 0.04721338301897049 0.2622368335723877 0.00718070799484849 0.2177456170320511 -0.3508664667606354 -0.30040350556373596 0.015043646097183228 0.2164478898048401 -0.10864005237817764 -0.46063151955604553 -0.2465181201696396 -0.13669627904891968 0.002224419265985489 0.19643862545490265 0.43688157200813293 0.4813225567340851 0.14750035107135773 -0.10929518193006516 0.3537731170654297 -0.21068236231803894 -0.5037221312522888 0.11471442133188248 0.5530744194984436 -0.729092001914978 -0.005769417621195316 -0.11598154157400131 0.04814916476607323 -0.27913549542427063 0.39045238494873047 -0.059341128915548325 -0.12626004219055176 -0.1342916339635849 0.2992335557937622 0.11409124732017517 -0.8804144859313965 0.48467397689819336 -0.019948594272136688 0.1942974478006363 -0.2530745565891266
l 0.03681124374270439 -0.5150355100631714 0.18032383918762207 0.036599937826395035 -0.2929759621620178 -0.13759925961494446 0.15414179861545563 -0.2092377096414566 0.14172299206256866 0.6015650629997253 0.09512554109096527 0.08966760337352753 0.27640601992607117 -0.08145415037870407 0.12782801687717438 -0.5400964617729187 -0.13165006041526794 0.20578008890151978 0.43077051639556885 -0.20488400757312775 -0.5992937088012695 -0.312205970287323 -0.198336660861969 -0.12382566928863525 0.256582111120224 0.5632299184799194 0.47793617844581604 0.3867091238498688 -0.13355053961277008 0.38163626194000244 -0.2868461012840271 -0.5364052653312683 0.05297267436981201 0.48851868510246277 -0.690452516078949 -0.06641986221075058 -0.27415260672569275 0.08775521069765091 -0.2884187400341034 0.6959267854690552 -0.21279680728912354 -0.30978840589523315 0.13119620084762573 0.3187939524650574 0.13525483012199402 -0.8508914709091187 0.5266338586807251 0.027644464746117592 0.13792437314987183 -0.25056350231170654
easily -0.03616388887166977 -0.31322306394577026 0.47401341795921326 0.1548582911491394 -0.20429077744483948 -0.06843099743127823 -0.1260988414287567 0.06477924436330795 0.5588179230690002 0.13264748454093933 -0.16000652313232422 0.14352957904338837 0.6273452639579773 -0.041674643754959106 0.29032567143440247 -0.4362722635269165 -0.4210195243358612 -0.025119176134467125 -0.04674069210886955 0.020345250144600868 -0.46356457471847534 -0.1808251142501831 -0.13781751692295074 0.009999959729611874 0.2628091871738434 0.21484817564487457 0.1905393749475479 0.08855732530355453 -0.07599721848964691 0.193952277302742 -0.15097323060035706 -0.26748204231262207 0.2169186919927597 0.3576968014240265 -0.5622803568840027 -0.1411294937133789 -0.24543316662311554 0.5595353841781616 -0.15665939450263977 0.4981079697608948 -0.0649418905377388 -0.06600610911846161 -0.13777664303779602 -0.02222433127462864 0.22224152088165283 -0.613545298576355 0.315739244222641 -0.11256230622529984 -0.07891473919153214 -0.240394726395607
change 0.047931358218193054 -0.45004844665527344 0.17080911993980408 0.16450059413909912 0.0007381226168945432 -0.09874148666858673 0.15605252981185913 -0.06251939386129379 0.18613959848880768 0.3542308509349823 -0.023975662887096405 0.05148174613714218 0.3511810898780823 0.09966953843832016 0.21886222064495087 -0.34846264123916626 -0.2888752520084381 -0.02656460925936699 0.11161907017230988 -0.0546431839466095 -0.44993075728416443 -0.1882227659225464 -0.14505089819431305 0.09367663413286209 0.09258510917425156 0.38673457503318787 0.3519759178161621 0.2287878394126892 -0.08903931081295013 0.30185115337371826 -0.2212418019771576 -0.35579973459243774 0.07306508719921112 0.41220104694366455 -0.4570322632789612 -0.024768318980932236 -0.195242777466774 0.08843453973531723 -0.30534860491752625 0.40825605392456055 -0.09141872078180313 -0.14538884162902832 -0.16108080744743347 0.3415184020996094 0.1291903704404831 -0.7452731132507324 0.3677358627319336 -0.04716670885682106 0.22153733670711517 -0.26266732811927795
product 0.10039275139570236 -0.2689448595046997 0.0962684378027916 0.5167796015739441 0.5868443846702576 -0.31974852085113525 0.09513615816831589 0.26663219928741455 0.3707953095436096 0.41395220160484314 0.10188662260770798 0.5049088597297668 0.38514024019241333 0.042147789150476456 0.432139128446579 -0.05753779038786888 -0.14593227207660675 -0.033407192677259445 0.06317410618066788 0.03222132474184036 -0.703731119632721 -0.0057558827102184296 -0.04487503319978714 0.16528940200805664 -0.08609740436077118 0.1123100072145462 0.13805310428142548 0.5443915724754333 0.026888525113463402 0.3594478964805603 -0.34131714701652527 -0.17922595143318176 0.08900804072618484 0.23493610322475433 -0.08243457973003387 -0.2654220163822174 -0.248395174741745 0.00634097121655941 -0.432976096868515 0.5315254330635071 -0.17331822216510773 -0.41593340039253235 -0.1086440160870552 0.45344993472099304 0.5043903589248657 -0.8423030376434326 0.09656327217817307 -0.09385755658149719 0.2704903185367584 -0.19342470169067383
type 0.029742728918790817 -0.5479031205177307 0.2190321832895279 0.1131499856710434 -0.1567285805940628 0.0356895849108696 0.14717541635036469 0.0023106159642338753 0.09827829152345657 0.23943258821964264 0.23494236171245575 0.02037888579070568 0.4345984160900116 0.08933769911527634 0.20094840228557587 -0.2524373233318329 -0.36590033769607544 -0.16543187201023102 0.16455987095832825 0.12227188050746918 -0.6186124682426453 -0.2522100508213043 -0.2239653617143631 0.04912444204092026 0.3620317280292511 0.3443607687950134 0.3242107331752777 0.13278675079345703 -0.06792458891868591 0.12430789321660995 -0.1881990283727646 -0.30036047101020813 -0.037062909454107285 0.1848388910293579 -0.5474647879600525 -0.06005691736936569 -0.2389022260904312 0.4689827859401703 -0.15440842509269714 0.3176869750022888 -0.024247806519269943 0.05932221934199333 -0.3714115023612976 0.1504821479320526 0.48187434673309326 -0.6680119633674622 0.2856355607509613 0.1288059800863266 0.1937405914068222 0.15432725846767426
changing 0.07822167873382568 -0.42975953221321106 0.14395441114902496 0.18334059417247772 0.09834054112434387 -0.1969871073961258 0.1241903305053711 0.008859808556735516 0.17069067060947418 0.3837962746620178 -0.003987898584455252 0.06349404156208038 0.36502718925476074 0.10036017000675201 0.20235168933868408 -0.2554473876953125 -0.27947336435317993 -0.013504663482308388 0.09652920812368393 -0.02143934555351734 -0.40949204564094543 -0.08094914257526398 -0.19311057031154633 0.1151745617389679 0.05294167250394821 0.3508220911026001 0.3172095715999603 0.3595806956291199 -0.09074844419956207 0.2387058138847351 -0.2442682534456253 -0.31793472170829773 0.10811344534158707 0.29177677631378174 -0.27463117241859436 -0.09429264813661575 -0.19939200580120087 0.16555485129356384 -0.2295536994934082 0.3475770056247711 -0.087945856153965 -0.1841861456632614 -0.17929111421108246 0.36903834342956543 0.2193656861782074 -0.7142174243927002 0.34805208444595337 -0.03524520993232727 0.302583783864975 -0.2014891654253006
parts 0.013258097693324089 -0.35942453145980835 0.05354733020067215 0.17921008169651031 -0.11173179000616074 -0.26346758008003235 0.12444577366113663 -0.1342814564704895 0.20863284170627594 0.42771586775779724 -0.02254306897521019 -0.05922118201851845 0.5359935760498047 0.12670017778873444 0.15082621574401855 -0.32172536849975586 -0.3085549473762512 0.07875103503465652 0.037847500294446945 -0.0947735384106636 -0.43264350295066833 -0.3144400715827942 -0.320715993642807 0.08399713784456253 0.03806079924106598 0.4644460380077362 0.3420923352241516 0.3360227644443512 -0.2660566568374634 0.2352026253938675 -0.31278520822525024 -0.22314044833183289 0.12074274569749832 0.21257026493549347 -0.3748331367969513 -0.07416659593582153 -0.290744423866272 0.1829431653022766 -0.0362415611743927 0.30362141132354736 -0.007485720794647932 -0.2120702713727951 -0.13153551518917084 0.21291927993297577 0.11480662226676941 -0.5104557871818542 0.2880313992500305 -0.08355285227298737 0.4035806655883789 -0.2822272777557373
specially 0.06620848178863525 -0.24443045258522034 0.050891026854515076 0.03351321443915367 0.21493899822235107 -0.3296393156051636 0.017820928245782852 -0.029415689408779144 0.2424144744873047 0.18425071239471436 -0.04417033493518829 -0.06614696979522705 0.23877786099910736 0.0746055319905281 0.12944267690181732 0.09267480671405792 -0.11323955655097961 0.022357452660799026 -0.06662966310977936 0.19956476986408234 -0.17430707812309265 -0.1917174905538559 -0.28017348051071167 -0.013146198354661465 -0.02700706385076046 0.08138956874608994 0.12340503185987473 0.29498326778411865 0.057632043957710266 0.16556015610694885 -0.24120137095451355 -0.23995693027973175 0.18849995732307434 0.37025776505470276 -0.037393294274806976 -0.21054096519947052 0.0014816125622019172 0.40195798873901367 -0.012385795824229717 0.07461138814687729 0.0020752937998622656 -0.24686574935913086 -0.3221771717071533 0.18979589641094208 0.3456115126609802 -0.47800973057746887 0.342115581035614 -0.07943197339773178 0.15828590095043182 -0.22430968284606934
testing 0.664586067199707 -0.056428153067827225 -0.012763530015945435 0.04668184369802475 0.31823107600212097 -1.3139088153839111 -0.26925814151763916 -0.08738276362419128 0.5045486688613892 0.37066811323165894 -0.04769332706928253 0.03136732429265976 0.6945234537124634 0.10330148786306381 0.31504714488983154 0.21701084077358246 0.16018687188625336 0.540597677230835 -0.04350297525525093 0.04023515060544014 0.34621283411979675 -0.0781199261546135 -1.1883928775787354 -0.3628079295158386 -0.0937405675649643 -0.3111134469509125 -0.41779807209968567 1.23796546459198 0.19300605356693268 -0.05875064805150032 -0.06514519453048706 0.0341586209833622 0.5336387157440186 0.7325537204742432 0.5504063963890076 -0.07455343008041382 0.03538031876087189 0.26291754841804504 0.2680820822715759 0.20048420131206512 0.008736109361052513 -0.23710612952709198 -0.10881166905164719 0.20927627384662628 0.2519032657146454 -0.05463501438498497 0.3519650101661682 -1.0388449430465698 0.49277642369270325 -0.38186246156692505
kinds 0.5962771773338318 0.021527985110878944 0.3914327621459961 0.2666768431663513 -0.07020968943834305 -1.0245361328125 -0.013323485851287842 0.15358121693134308 0.1249009519815445 0.8438302874565125 0.10163336247205734 -0.8317442536354065 0.7980994582176208 0.6940241456031799 -0.32810670137405396 0.7447461485862732 -0.4816131293773651 0.2947657108306885 -0.39727354049682617 0.3104957044124603 -0.1969669908285141 -0.25196680426597595 -0.37020134925842285 -0.37957242131233215 0.13904288411140442 -0.025373563170433044 0.0515509769320488 0.8631865382194519 0.12464854121208191 -0.5282849669456482 0.12562240660190582 0.17186537384986877 0.21361643075942993 0.4186287820339203 -0.43844568729400635 -0.07961174845695496 -0.24767142534255981 0.6944392323493958 0.7044169306755066 -0.39074862003326416 0.052969273179769516 0.06560514122247696 -0.4580693244934082 0.1857108175754547 -0.22912099957466125 -0.1828659176826477 0.057218972593545914 -0.5538610816001892 0.9353551268577576 -0.27591344714164734
packed 0.09003321826457977 -0.4667665958404541 -0.039237409830093384 -0.08819686621427536 -0.13062408566474915 -0.08291245996952057 -0.04767655208706856 -0.16077347099781036 -0.030662400647997856 0.07887688279151917 0.04051906615495682 -0.2949539124965668 0.101627416908741 -0.03760087490081787 0.10658048838376999 -0.1199105829000473 -0.1740441918373108 -0.16259455680847168 0.23603738844394684 0.26219916343688965 -0.2577489912509918 -0.3710881769657135 -0.3253711760044098 0.14060617983341217 0.19285395741462708 0.3316519558429718 0.30250778794288635 0.1979881227016449 -0.15674880146980286 0.13069023191928864 -0.37330129742622375 -0.27789410948753357 0.29172125458717346 0.3048177659511566 -0.22826197743415833 -0.3258886933326721 0.07208570092916489 0.2451961636543274 0.16047513484954834 0.04431832954287529 0.12862595915794373 -0.06044476851820946 -0.3956819176673889 0.03639866039156914 0.5249034762382507 -0.6177706718444824 0.5347787737846375 0.15029513835906982 0.4338400363922119 -0.06567680835723877
products 0.05891886353492737 -0.45067286491394043 0.07314956933259964 0.007200277876108885 -0.32654160261154175 0.008255492895841599 -0.02822227217257023 -0.13575880229473114 0.21091370284557343 0.19840699434280396 0.17309240996837616 -0.3137205243110657 0.45287734270095825 0.09115535765886307 -0.03205826133489609 -0.01720750704407692 -0.30773377418518066 -0.2806949317455292 0.15726374089717865 0.31854990124702454 -0.48510614037513733 -0.4918590784072876 -0.3242996633052826 0.001304483856074512 0.3558526039123535 0.4491140842437744 0.21280261874198914 0.3158166706562042 0.05123409628868103 0.04195442795753479 -0.30085495114326477 -0.02541908621788025 0.290322870016098 0.18901123106479645 -0.3848434388637543 -0.0881769135594368 -0.0130002461373806 0.27821260690689087 0.21567794680595398 -0.031054368242621422 0.10043639689683914 0.1616150289773941 -0.5092628598213196 0.09194072335958481 0.3294658660888672 -0.5114056468009949 0.37642958760261536 0.07160855829715729 0.5386031270027161 -0.017296357080340385
sterilization 0.23277968168258667 -0.42987242341041565 -0.08179318904876709 -0.004874506965279579 0.4113680422306061 -0.1556469053030014 0.313757985830307 -0.17017337679862976 -0.09210795909166336 -0.021427534520626068 -0.008669287897646427 -0.029960399493575096 0.08091358095407486 0.20642076432704926 0.3236551284790039 -0.08560571819543839 0.044613998383283615 -0.019259586930274963 0.014536624774336815 0.24797455966472626 0.01420454028993845 -0.11989135295152664 -0.28908342123031616 0.1744178682565689 -0.021955423057079315 -0.03709273040294647 0.04014911502599716 0.11718737334012985 0.15358532965183258 0.19461801648139954 -0.14294971525669098 -0.35636526346206665 -0.010295768268406391 0.4224388599395752 0.03643554821610451 -0.00956196989864111 0.16526834666728973 0.34555551409721375 -0.22204072773456573 0.11267261207103729 0.13439807295799255 -0.01102167647331953 -0.41373494267463684 0.26139599084854126 0.4237324595451355 -0.5858627557754517 0.2438182383775711 -0.09759195148944855 0.08074068278074265 0.06983009725809097
cooking 0.2098807394504547 -0.23704329133033752 0.006025394890457392 0.049570247530937195 0.10418477654457092 -0.22681300342082977 0.07227655500173569 -0.1114126592874527 0.030672630295157433 0.13942468166351318 -0.0715702697634697 -0.20022021234035492 0.17196618020534515 0.13013020157814026 0.11704067885875702 0.014483329840004444 -0.12479597330093384 -0.0405128113925457 -0.005506673362106085 0.1418847143650055 -0.07613149285316467 -0.19450151920318604 -0.23720242083072662 0.050409700721502304 -0.016813000664114952 0.11888789385557175 0.08021463453769684 0.2553331255912781 0.024952242150902748 0.0619051419198513 -0.10306337475776672 -0.15072686970233917 0.13112978637218475 0.3180464506149292 -0.08695777505636215 -0.09784591943025589 0.028715137392282486 0.19910918176174164 0.05294405668973923 -0.0006976741133257747 0.06037336215376854 -0.086298368871212 -0.2495764046907425 0.1321609914302826 0.13451094925403595 -0.41884544491767883 0.27114567160606384 -0.14578109979629517 0.2596101760864258 -0.1893043965101242
owner 0.1934320032596588 -0.2742754817008972 -0.01338417362421751 0.0379476472735405 0.13656702637672424 -0.2306462675333023 0.10022082924842834 -0.12101908028125763 -0.0021498699206858873 0.1318073272705078 -0.033311955630779266 -0.15985950827598572 0.16256803274154663 0.15116824209690094 0.14946624636650085 -0.012859628535807133 -0.083211749792099 -0.019928693771362305 0.007219222839921713 0.13490289449691772 -0.08027392625808716 -0.20634567737579346 -0.24290138483047485 0.04423416778445244 -0.01820952072739601 0.09094799309968948 0.0697280541062355 0.22853399813175201 0.03606777265667915 0.08870738744735718 -0.106740802526474 -0.20660297572612762 0.09912241995334625 0.32954394817352295 -0.09346231073141098 -0.10432180017232895 0.007416157051920891 0.2346409559249878 0.03199661523103714 0.024546915665268898 0.06570784747600555 -0.10171675682067871 -0.24237219989299774 0.1123305931687355 0.17952001094818115 -0.43770286440849304 0.25047916173934937 -0.13527895510196686 0.23325960338115692 -0.14661934971809387
patent-laser 0.17402420938014984 -0.27771899104118347 0.005979230161756277 0.031461201608181 0.09676720947027206 -0.24114036560058594 0.10878582298755646 -0.11488853394985199 -0.00041955214692279696 0.15246693789958954 -0.018270237371325493 -0.1501244604587555 0.2192595899105072 0.14673548936843872 0.12508738040924072 -0.023626748472452164 -0.10250256955623627 -0.01658743806183338 0.010646206326782703 0.13145582377910614 -0.07096973061561584 -0.16998788714408875 -0.23975896835327148 0.04483703523874283 0.017916079610586166 0.08860829472541809 0.09026899188756943 0.19986099004745483 0.01539610791951418 0.0545225590467453 -0.12020593136548996 -0.17156365513801575 0.13523508608341217 0.29856377840042114 -0.10595747083425522 -0.06276067346334457 -0.0004686986794695258 0.22135263681411743 0.02644529566168785 0.007849294692277908 0.06729517877101898 -0.04628279060125351 -0.26834189891815186 0.12061570584774017 0.1565898060798645 -0.41339021921157837 0.21438239514827728 -0.1291493922472 0.28767719864845276 -0.12218796461820602
welding 0.031149012967944145 -0.06223414093255997 0.03673224523663521 0.5221717953681946 0.6489453911781311 -0.7433157563209534 0.2353692501783371 0.14950256049633026 0.30712878704071045 0.539290726184845 -0.021977825090289116 0.2102239727973938 0.24059070646762848 0.12829017639160156 0.12579596042633057 0.32366490364074707 0.055348459631204605 -0.0006559919565916061 -0.04812854900956154 0.11284241825342178 -0.5779968500137329 -0.16369828581809998 -0.23458275198936462 0.0208235252648592 -0.33262649178504944 0.22866365313529968 0.21545036137104034 0.5318284034729004 -0.04645386338233948 0.11145628243684769 -0.47338056564331055 -0.04976629093289375 0.22112783789634705 0.2196095883846283 0.011031514033675194 -0.49781137704849243 -0.20597520470619202 0.09389328956604004 -0.19180536270141602 0.30752092599868774 -0.09892263263463974 -0.6916760802268982 -0.35792362689971924 0.49758657813072205 0.3552781939506531 -0.5919219851493835 0.14759880304336548 -0.013973146677017212 0.5007873773574829 -0.461495578289032
heat 0.22011548280715942 -0.4930873513221741 -0.17725898325443268 -0.10905241221189499 -0.142751544713974 -0.015794068574905396 0.2068408876657486 -0.3609602749347687 -0.17678488790988922 0.1312933713197708 0.0811852440237999 -0.5545817017555237 0.06124125048518181 0.16229192912578583 0.1256672590970993 0.02665441855788231 0.030540086328983307 -0.17891570925712585 0.14575950801372528 0.3030942678451538 -0.40735843777656555 -0.5318166017532349 -0.49122947454452515 0.10398548096418381 -0.13118356466293335 0.4561845362186432 0.2881810665130615 0.2565855383872986 -0.11937984824180603 0.042725108563899994 -0.2955005168914795 -0.38864055275917053 -0.07448401302099228 0.285321980714798 -0.0630500465631485 -0.2783951163291931 0.015021823346614838 0.5383057594299316 0.11036849021911621 -0.10702856630086899 0.05466017872095108 -0.2303249090909958 -0.3055644929409027 0.03652818873524666 0.36030715703964233 -0.5336336493492126 0.5265927314758301 0.23504187166690826 0.26207247376441956 -0.1104169562458992
transfer 0.3119850754737854 -0.5683726072311401 -0.34626367688179016 -0.12668174505233765 -0.18327966332435608 0.23956868052482605 0.21879644691944122 -0.43528807163238525 -0.4338220953941345 -0.1590554118156433 0.14878077805042267 -0.6636697053909302 -0.04217064380645752 0.22174759209156036 0.24753187596797943 -0.25645288825035095 -0.05225847288966179 -0.3312385678291321 0.20213532447814941 0.27978724241256714 -0.2686627507209778 -0.6358553767204285 -0.4106312096118927 0.22824490070343018 -0.048596132546663284 0.25944939255714417 0.20071642100811005 0.19195044040679932 -0.13434918224811554 0.11990510672330856 -0.23390600085258484 -0.4188973009586334 -0.16770713031291962 0.5310211777687073 -0.1520451158285141 -0.12450756877660751 0.1604098081588745 0.3965441584587097 0.07988225668668747 -0.09854964911937714 0.18353520333766937 -0.10477711260318756 -0.3139263987541199 -0.002111813286319375 0.41085976362228394 -0.5620505213737488 0.6268582940101624 0.14473320543766022 0.3364830017089844 -0.09729532897472382
plate -0.019246665760874748 -0.36128440499305725 0.098202183842659 -0.017538921907544136 0.32507213950157166 -0.41231322288513184 0.42274710536003113 -0.1592295616865158 -0.3272773325443268 0.3664502203464508 -0.2166297435760498 -0.1732405722141266 0.01416737399995327 0.26082542538642883 -0.05059976875782013 0.054802779108285904 0.027661222964525223 -0.06029417738318443 -0.0852709412574768 0.24237459897994995 0.18898585438728333 -0.19041325151920319 -0.07378361374139786 0.0655195564031601 -0.17707568407058716 0.3191310465335846 0.2679481506347656 0.12099069356918335 0.014576470479369164 0.04821089655160904 -0.23324596881866455 -0.2978978455066681 0.013975497335195541 0.25067541003227234 -0.17049825191497803 -0.2329380214214325 -0.03639504313468933 0.2803138196468353 0.07660411298274994 -0.13063599169254303 0.2065928727388382 -0.2380502074956894 -0.5523170828819275 0.31477174162864685 0.22023628652095795 -0.6440622210502625 0.41535326838493347 -0.021463856101036072 0.23676316440105438 -0.31842491030693054
fledged 0.10402711480855942 -0.292906790971756 0.02124205231666565 0.05607675015926361 0.11746206879615784 -0.18595336377620697 0.1861458420753479 -0.10388153046369553 -0.052715133875608444 0.1696845144033432 -0.006012418773025274 -0.14612887799739838 0.22650061547756195 0.16803066432476044 0.11582794040441513 -0.05953984335064888 -0.07564814388751984 -0.034873656928539276 0.003607966238632798 0.15573984384536743 -0.0966687947511673 -0.18976879119873047 -0.16310712695121765 0.05054838955402374 0.001537530217319727 0.10121019929647446 0.11333763599395752 0.13976268470287323 0.04692506790161133 0.06557772308588028 -0.14282627403736115 -0.20404545962810516 0.07958334684371948 0.2638351023197174 -0.12932062149047852 -0.05501517653465271 -0.02043251320719719 0.27097904682159424 -0.012236278504133224 0.0088025638833642 0.07092428207397461 -0.038289185613393784 -0.27816787362098694 0.12584882974624634 0.15690551698207855 -0.4623887836933136 0.21736274659633636 -0.09222288429737091 0.2545802891254425 -0.10870837420225143
experience 0.13292774558067322 -0.4621102213859558 -0.033689286559820175 -0.10177448391914368 0.14553190767765045 -0.19856634736061096 0.19907031953334808 -0.23168538510799408 -0.0495823435485363 0.1185571551322937 0.057363688945770264 -0.0789356529712677 0.2697220742702484 0.16989977657794952 0.1743675172328949 -0.060435377061367035 0.03539115563035011 0.021772747859358788 0.03848383203148842 0.18227076530456543 -0.06877636164426804 -0.23654696345329285 -0.28734031319618225 -0.0611027255654335 0.07965761423110962 0.022451123222708702 0.08849851787090302 0.1717955321073532 0.21316593885421753 0.08198349922895432 -0.14350277185440063 -0.29869890213012695 0.0494108647108078 0.3115253746509552 -0.07911374419927597 -0.01835566759109497 0.02686919830739498 0.4472407400608063 -0.03846793249249458 0.0388081856071949 0.05839502811431885 -0.030892137438058853 -0.2917189300060272 0.09516814351081848 0.2896652817726135 -0.5566308498382568 0.219012051820755 -0.08714690059423447 0.16369128227233887 0.0214855819940567
excellent 0.13646842539310455 -0.31369373202323914 -0.005528340116143227 0.04914237931370735 0.1439492106437683 -0.2138858288526535 0.14039219915866852 -0.10581051558256149 -0.008418554440140724 0.14938108623027802 0.05078406631946564 -0.08002091199159622 0.22406600415706635 0.18165723979473114 0.10962318629026413 -0.019047804176807404 -0.05987008288502693 -0.05121228098869324 -0.004175267182290554 0.1403423547744751 -0.12690289318561554 -0.18966850638389587 -0.2040199488401413 0.008966688998043537 0.0016959365457296371 0.05721679702401161 0.08613386005163193 0.16985341906547546 0.08442028611898422 0.04286147281527519 -0.11482462286949158 -0.18319633603096008 0.05124993994832039 0.2944019138813019 -0.12288834899663925 -0.048889439553022385 -0.014960975386202335 0.2542612552642822 -0.02646634913980961 0.028770223259925842 0.05580423027276993 -0.03876257687807083 -0.23714913427829742 0.1347486525774002 0.17025241255760193 -0.45058542490005493 0.17402969300746918 -0.11182275414466858 0.22636854648590088 -0.11280722916126251
processing 0.1173505038022995 -0.4463272988796234 -0.030478807166218758 -0.11480006575584412 -0.021411987021565437 -0.3511744737625122 0.1518038511276245 -0.2273811250925064 -0.10091035813093185 0.2244778275489807 0.2191813737154007 -0.09910595417022705 0.24491611123085022 0.1322973072528839 0.11710301786661148 0.022948071360588074 -0.14472603797912598 -0.07859187573194504 0.08204285055398941 0.17237572371959686 -0.349480539560318 -0.27002575993537903 -0.31723928451538086 -0.06385735422372818 0.084679014980793 0.21096402406692505 0.2830689251422882 0.030692623928189278 -0.05502738803625107 0.05445459485054016 -0.25116977095603943 -0.33446449041366577 0.06812043488025665 0.17026816308498383 -0.22180236876010895 -0.18751166760921478 -0.10896627604961395 0.5031031370162964 0.06872769445180893 -0.06693769991397858 0.022476667538285255 -0.10076503455638885 -0.2553972005844116 -0.04264100268483162 0.4107380509376526 -0.6272171139717102 0.22137296199798584 0.06407257169485092 0.3745512366294861 -0.033230651170015335
applied 0.138227179646492 -0.4445626139640808 -0.12555284798145294 0.1280800998210907 0.2837591767311096 -0.17926377058029175 0.2941525876522064 -0.2014104127883911 0.055768419057130814 0.13769668340682983 0.20963360369205475 0.04874816909432411 0.5089189410209656 0.36067211627960205 0.39250829815864563 -0.04897686466574669 0.10679076611995697 0.12710124254226685 0.008399754762649536 0.15248548984527588 -0.4423474073410034 -0.30189067125320435 -0.14626316726207733 0.01136658526957035 0.10713373124599457 -0.12433761358261108 0.04584697261452675 0.20052151381969452 0.1996033638715744 0.1774137020111084 -0.12281375378370285 -0.1673699915409088 -0.052187480032444 0.18339690566062927 -0.19211938977241516 0.06932178884744644 -0.0009247720590792596 0.32536420226097107 -0.22022780776023865 0.02697872370481491 0.1302538365125656 0.04087018966674805 -0.267488032579422 0.10670805722475052 0.21193379163742065 -0.5309956073760986 -0.15981706976890564 -0.2179509848356247 0.30802881717681885 0.14588052034378052
diary 0.050883542746305466 -0.3332694470882416 0.03771093487739563 0.08015620708465576 0.17824281752109528 -0.24468477070331573 0.25017058849334717 -0.12692347168922424 0.04218772053718567 0.2245902717113495 0.02505902759730816 -0.01995302177965641 0.34708309173583984 0.25993165373802185 0.10887481272220612 -0.01567961648106575 -0.025268513709306717 0.04354439303278923 -0.04557720571756363 0.1253265142440796 -0.14389453828334808 -0.18756292760372162 -0.1427271068096161 -0.03353724628686905 0.0319170318543911 0.04104382544755936 0.0944635272026062 0.140586718916893 0.14389126002788544 0.03800155967473984 -0.10237058252096176 -0.1780003011226654 0.016025986522436142 0.22850430011749268 -0.1917581707239151 0.018176572397351265 -0.07972756773233414 0.26656022667884827 -0.09393338859081268 0.08267630636692047 0.034693438559770584 -0.02608036808669567 -0.26824599504470825 0.1881285011768341 0.08817043900489807 -0.4301489293575287 0.06032327935099602 -0.17273451387882233 0.18460223078727722 -0.0486307218670845
food -0.13850842416286469 -0.469364732503891 0.010764638893306255 -0.10685126483440399 -0.15847063064575195 -0.266773521900177 0.2899293303489685 -0.37195733189582825 0.05090637132525444 0.29045242071151733 0.3907734751701355 -0.13495400547981262 0.5117436051368713 0.2808779776096344 -0.09820404648780823 0.14541621506214142 0.1342177540063858 0.027017174288630486 0.12066636979579926 0.23033730685710907 -0.4878133535385132 -0.5231642723083496 -0.3577896058559418 -0.34612730145454407 0.2304217666387558 0.08006373792886734 0.14813469350337982 0.17512132227420807 0.1425948292016983 -0.1723426729440689 -0.307182639837265 -0.21562804281711578 -0.04583820700645447 0.1785912960767746 -0.4242651164531708 -0.07640793919563293 -0.11901766061782837 0.6683452725410461 0.15682336688041687 -0.0484408363699913 0.03595429286360741 -0.060507334768772125 -0.3354846239089966 0.06566112488508224 0.368361234664917 -0.3300088942050934 0.031078044325113297 0.050883468240499496 0.30924224853515625 0.1541024148464203
